SVM-light Version V6.02
0 # kernel type
3 # kernel parameter -d 
1 # kernel parameter -g 
1 # kernel parameter -s 
1 # kernel parameter -r 
empty# kernel parameter -u 
101366 # highest feature index 
18457 # number of training documents 
4775 # number of support vectors plus 1 
-0.30714261 # threshold b, each following line is a SV (starting with alpha*y)
-0.00095978161945162025238398317839028 2:1 8:1 20:1 30:1 39:1 57:2 64:1 71:1 118:1 143:1 144:1 148:1 203:1 232:1 273:1 280:1 370:1 502:1 577:1 601:1 602:1 654:1 768:1 887:1 1019:1 1376:1 1377:1 1462:1 1498:2 1509:1 1760:1 1922:1 2010:1 2783:1 2836:1 2858:1 3004:1 3345:1 3347:1 3432:1 3686:1 4395:1 6355:1 9039:1 9330:1 10428:1 12144:1 12434:1 12501:1 12550:1 14898:1 17892:1 18101:1 18140:1 18463:1 20303:1 21901:1 22283:1 22708:1 25098:1 25113:1 25939:1 28476:1 29428:1 39488:1 39716:1 41980:1 48080:1 48815:1 48863:1 53308:1 53981:1 54478:1 54479:1 54480:1 54481:1 54482:1 54483:1 54484:1 54485:1 54486:1 54487:1 54488:1 54489:1 54490:1 54491:1 54492:1 54493:1 54494:1 54495:1 54496:1 54497:1 54498:1 54499:1 54500:1 54501:1 54502:1 54503:1 54504:1 54505:1 54506:1 54507:1 54508:1 54509:1 54510:1 54511:1 54512:1 54513:1 54514:1 54515:1 54516:1 54517:1 54518:1 54519:1 54520:1 #
-0.00095978161945162025238398317839028 2:1 6:8 8:8 12:7 14:2 15:1 20:2 22:5 24:1 30:1 32:2 37:3 39:5 55:2 57:2 68:7 71:5 77:1 83:1 93:2 105:1 110:1 112:3 113:3 123:3 124:1 129:1 134:2 140:1 146:6 148:1 204:1 248:8 263:2 267:3 271:1 272:2 273:2 275:1 278:1 280:1 300:1 304:1 305:1 329:1 361:2 373:1 397:1 412:1 417:2 420:1 445:1 472:1 475:3 485:1 511:1 541:1 556:1 573:1 613:2 675:1 697:2 728:1 788:1 806:2 852:1 875:1 886:1 945:1 1052:1 1251:1 1273:1 1462:1 1464:1 1488:1 1490:1 1493:2 1495:4 1498:1 1519:1 1537:1 1540:1 1545:4 1594:1 1733:1 1777:1 1833:1 1921:2 1951:1 2018:1 2079:1 2104:2 2195:1 2427:1 2428:1 2670:1 2751:1 2811:1 2853:1 3004:1 3166:1 3537:1 3568:1 3573:1 3686:1 4547:1 4633:1 5276:2 5400:1 5409:1 5410:1 5944:1 6154:1 9156:1 9775:1 9937:1 13247:1 13591:1 15800:1 17045:1 19587:1 33311:1 47239:1 54872:1 88229:2 88230:1 #
0.00078740890640848480198921155448488 2:1 8:2 12:4 14:1 15:4 16:1 22:10 24:2 26:1 30:1 37:8 38:1 39:4 45:1 48:1 50:1 52:1 55:1 57:1 67:1 68:1 71:5 77:3 83:1 93:2 112:1 113:1 123:1 124:4 132:3 141:1 144:1 146:6 148:2 150:1 154:1 199:1 209:1 244:1 248:1 263:3 300:1 304:1 308:1 319:1 344:1 388:1 406:1 412:1 416:1 478:1 511:1 519:1 544:1 576:1 603:2 604:2 666:1 669:1 670:2 678:2 729:1 775:1 886:1 917:1 945:4 1038:2 1125:2 1402:1 1495:3 1498:1 1521:1 1600:1 1763:1 1777:1 1835:2 1865:1 1950:1 2044:1 2140:1 2177:2 2373:1 2404:1 2549:2 2576:1 2658:1 2708:1 2745:1 2777:1 2807:1 2828:1 3225:1 3235:1 3241:1 3311:1 3329:1 3330:1 3333:1 3371:1 3384:1 3401:1 3407:1 3410:1 3759:1 3945:1 4605:1 4669:2 5094:2 5168:2 5187:1 5225:1 5325:1 5742:1 6199:1 6403:3 6504:1 7126:2 7127:1 7128:1 7130:4 7131:4 8719:1 9588:1 9657:1 10005:1 10488:3 10489:1 10788:1 10955:1 19440:1 21071:1 22627:1 22769:1 22770:1 22771:1 22772:1 22819:1 22820:1 22821:1 22822:1 22823:1 #
-0.00095978161945162025238398317839028 2:1 602:1 1560:1 1970:1 2417:1 2853:1 3127:1 3772:1 4044:1 5185:1 5830:1 7107:1 9716:1 13427:1 13429:1 14722:1 16934:1 19641:1 20002:1 21350:1 22972:1 24100:1 27753:1 28090:1 32311:1 38266:1 44080:1 46069:1 54493:1 54552:1 54553:1 54554:1 54555:1 54556:1 54557:1 54558:1 54559:1 54560:1 54561:1 54562:1 54563:1 54564:1 54565:1 54566:1 54567:1 54568:1 54569:1 54570:1 54571:1 54572:1 54573:1 54574:1 54575:1 54576:1 54577:1 #
-0.00095978161945162025238398317839028 2:1 12:1 53:1 57:1 59:1 71:3 104:2 124:2 150:1 231:2 263:2 271:1 272:1 285:1 325:1 514:2 547:1 573:1 648:1 654:1 886:1 1495:1 1594:1 2598:1 2727:1 3168:1 3614:1 3646:1 4423:1 7071:1 8028:1 19329:1 22070:1 44502:2 46698:1 54578:1 54579:2 54580:1 #
0.00095978161945162025238398317839028 2:1 4:1 6:1 12:1 22:1 37:3 39:1 57:1 71:1 112:1 116:1 250:1 275:1 373:1 463:1 488:1 1278:2 1464:1 1495:2 1549:1 1554:1 1948:1 2079:1 2734:1 3728:1 4245:1 7052:1 #
0.00041518233711040377059003914084201 2:1 6:2 8:2 12:3 13:1 14:2 15:1 19:1 20:3 22:3 25:1 37:1 39:4 57:1 68:2 71:7 78:1 92:1 112:2 118:1 123:1 130:2 146:1 148:4 150:2 154:1 181:1 209:1 232:1 248:2 254:3 263:1 275:2 296:1 300:1 304:2 339:1 341:1 342:2 368:1 397:1 472:1 488:1 511:1 521:2 591:1 624:1 675:1 692:1 838:1 852:1 874:1 1464:1 1488:2 1492:1 1493:2 1495:1 1498:1 1525:1 1633:1 1659:1 1770:1 1771:1 1855:3 1900:1 1904:2 2064:1 2311:1 2398:1 2555:2 2557:1 3023:1 3052:1 3121:1 4027:1 4423:1 4790:1 5287:5 5766:1 7012:1 7138:1 7219:1 8287:1 8941:1 9940:1 15866:2 33508:1 37868:1 #
0.00095978161945162025238398317839028 2:1 8:2 12:3 13:3 14:2 15:4 16:7 19:1 20:4 22:65 30:3 34:1 37:12 38:1 39:38 48:1 53:1 54:1 55:5 57:8 59:3 61:4 67:1 68:19 71:25 77:15 83:3 90:1 94:1 100:3 110:2 112:10 115:1 116:3 118:3 123:5 124:4 128:1 130:3 132:3 135:1 145:2 146:20 148:12 154:8 157:1 169:1 179:1 180:2 198:1 199:2 204:3 206:1 209:5 217:2 220:1 225:2 242:7 248:10 254:1 259:1 262:1 263:7 267:1 270:2 272:2 280:2 285:5 296:2 300:1 303:1 304:6 305:2 311:2 320:3 321:2 327:2 329:1 337:2 339:2 342:2 344:2 355:1 394:4 397:6 399:3 412:7 415:1 417:2 420:1 423:1 431:1 432:1 440:2 448:2 458:3 459:1 477:1 480:1 502:3 505:1 517:1 521:2 538:2 552:1 565:1 570:1 573:1 577:2 580:1 601:4 602:7 603:1 609:1 624:1 627:1 646:1 659:1 669:1 670:1 671:1 673:1 675:3 684:1 705:1 709:1 721:1 724:1 728:1 735:1 788:1 809:1 822:10 838:2 852:1 855:1 858:1 861:1 868:1 874:3 876:2 882:2 883:1 886:1 950:1 976:5 977:4 1025:1 1028:1 1033:1 1034:9 1039:1 1049:5 1052:1 1070:1 1194:1 1195:1 1257:2 1276:1 1303:1 1316:1 1377:4 1399:1 1450:1 1464:1 1474:4 1481:2 1484:1 1485:3 1491:1 1492:1 1495:3 1498:2 1512:1 1539:1 1548:1 1554:1 1556:2 1557:2 1580:6 1588:1 1594:1 1618:1 1633:1 1670:2 1674:1 1683:2 1704:1 1731:2 1747:1 1774:1 1777:1 1855:1 1856:1 1861:2 1864:2 1865:1 1875:1 1887:1 1907:1 1921:1 1935:1 1949:3 1950:2 1953:3 1956:11 1974:1 2018:1 2036:1 2047:1 2056:5 2071:2 2084:1 2108:1 2119:2 2186:1 2201:2 2216:2 2219:1 2244:1 2247:1 2277:1 2281:1 2291:10 2351:2 2360:1 2372:1 2378:1 2398:1 2404:1 2409:1 2414:3 2430:1 2473:1 2502:1 2511:1 2542:1 2556:1 2560:1 2591:1 2598:1 2606:1 2621:1 2640:1 2741:1 2747:7 2751:2 2844:1 2853:2 2883:1 2929:1 2952:1 2955:1 3015:1 3019:1 3023:4 3025:1 3170:5 3172:1 3175:1 3225:1 3228:1 3309:5 3344:1 3345:1 3373:2 3390:1 3441:1 3467:1 3513:1 3545:3 3546:3 3549:3 3550:1 3564:1 3613:1 3644:1 3646:2 3655:1 3656:1 3657:1 3658:1 3659:1 3670:1 3671:2 3672:1 3674:1 3676:1 3682:2 3683:1 3684:1 3685:1 3686:2 3687:1 3688:1 3689:1 3690:1 3691:2 3692:1 3693:1 3694:1 3695:3 3696:1 3770:1 3793:1 3802:1 3951:1 4042:1 4057:1 4065:1 4126:1 4127:3 4140:3 4153:1 4165:1 4245:1 4255:1 4304:1 4433:1 4522:1 4534:2 4582:1 4626:1 4633:1 4647:10 4845:1 4896:1 5130:1 5193:1 5200:1 5218:1 5324:1 5330:1 5458:1 5510:1 5585:1 5676:2 5729:1 5735:1 5928:1 5945:1 6047:1 6459:1 6520:1 6545:2 7115:1 8020:1 8021:1 8132:1 8509:1 8514:1 8728:1 8834:1 8986:1 9213:3 9379:1 9417:5 9650:2 9717:1 9723:1 10268:1 10586:3 10635:1 11189:2 11193:1 11817:1 12970:1 13243:1 14034:2 14280:1 14909:1 16623:1 18121:1 18492:1 19467:1 19503:1 19645:3 20804:1 20843:1 20913:3 26758:1 34682:1 35615:1 39528:1 39570:1 47835:7 47836:6 47837:6 47838:1 47839:3 47840:1 47841:2 47842:1 47843:1 47844:1 47845:1 47846:1 47847:1 47848:1 47849:1 47850:1 47851:1 47852:1 47853:1 47854:1 47855:1 47856:1 #
0.00095978161945162025238398317839028 2:1 8:2 12:1 14:1 19:2 20:4 22:2 25:1 37:1 39:8 55:1 57:2 68:1 71:4 78:2 100:1 124:1 146:2 148:1 209:1 272:1 273:1 348:2 412:2 502:1 599:1 602:3 659:1 759:1 1287:1 1322:1 1350:1 1431:1 1462:2 1594:1 1863:2 1864:3 1865:3 1889:1 1949:4 2076:1 2844:1 2928:2 3113:1 3173:1 3195:1 3460:1 3684:2 3989:3 4626:1 4865:2 4866:8 5830:1 7698:2 10635:1 11627:3 11631:1 11632:2 11633:1 13572:1 26461:2 30301:2 #
-0.00095978161945162025238398317839028 2:1 6:1 8:2 12:3 14:1 15:1 19:2 20:1 22:2 24:1 31:1 37:2 39:4 55:1 57:1 71:7 100:1 102:2 112:1 118:1 124:1 130:1 132:1 232:1 248:1 273:1 397:1 448:1 502:1 602:1 767:1 1462:2 1495:1 1594:1 1617:1 1624:1 1688:1 1855:1 1863:1 1865:3 2202:1 2236:1 2329:2 2628:1 2704:1 3195:1 3196:1 4056:1 4398:1 4534:1 4634:1 4635:1 5677:3 6545:2 7052:1 8669:1 8716:1 8882:1 9237:1 10661:1 10733:1 13468:1 18661:1 28792:1 35684:1 40185:2 98908:1 98909:1 98910:1 98911:1 #
-0.000776924284594933140662975645796 2:1 8:4 15:2 20:1 22:30 33:1 37:12 38:1 39:24 44:1 53:1 54:6 55:5 57:8 61:1 62:1 67:1 68:18 71:14 77:4 78:1 81:2 83:4 93:1 110:2 112:4 113:4 118:1 119:2 123:4 124:4 128:1 129:2 130:2 132:15 134:1 146:19 148:10 150:4 154:6 176:1 198:1 203:1 209:7 223:1 225:1 230:1 248:6 254:2 263:2 272:1 273:3 274:1 285:1 287:1 291:1 292:2 296:1 304:4 320:2 321:1 323:1 324:1 330:1 332:1 337:5 341:1 342:4 348:1 360:2 375:2 383:1 388:1 389:2 394:2 395:1 404:1 412:1 423:1 429:4 438:1 445:2 459:1 461:1 470:1 475:1 477:1 506:1 511:1 524:1 526:1 591:1 617:1 631:1 666:1 697:2 721:1 728:1 736:1 765:2 799:1 836:3 861:1 877:1 881:1 882:1 898:2 976:1 977:1 1000:1 1002:1 1025:1 1136:4 1316:1 1322:1 1324:1 1328:2 1334:1 1427:1 1456:2 1485:1 1495:1 1498:5 1514:1 1525:1 1560:1 1568:1 1577:1 1588:1 1602:1 1624:1 1659:1 1663:2 1673:1 1680:1 1687:1 1704:1 1733:1 1763:1 1768:1 1784:1 1809:1 1840:1 1864:1 1903:1 1914:1 1958:1 2001:3 2005:2 2010:1 2011:1 2043:2 2051:1 2074:1 2100:1 2124:1 2152:1 2177:1 2202:1 2217:1 2227:1 2230:1 2319:1 2320:2 2396:1 2401:1 2404:1 2406:1 2434:1 2441:1 2487:1 2521:1 2569:1 2591:4 2593:1 2642:1 2692:2 2695:1 2723:1 2748:1 2775:1 2776:1 2853:1 2864:1 2867:1 2887:1 2892:1 2897:1 2905:2 2912:1 2925:1 2955:2 3130:2 3140:1 3166:2 3167:1 3173:1 3195:1 3345:2 3479:1 3515:2 3534:2 3653:1 3684:1 3685:1 3701:1 3753:1 3763:1 3881:1 3896:1 3904:1 4071:1 4153:1 4192:1 4429:1 4555:2 4850:1 4899:2 5185:1 5245:1 5271:1 5379:1 5460:1 5591:1 5660:1 5925:1 5988:1 6069:1 6197:1 6287:1 6305:1 6474:1 6494:1 6716:9 6837:1 6842:1 6971:1 7035:1 7061:1 7113:1 7185:1 7191:1 7539:2 7566:1 7601:1 7894:1 8092:1 8391:1 8777:1 8851:1 8874:1 9174:1 9278:1 9292:1 9392:1 9637:1 9700:1 9800:1 9808:2 9932:2 9940:1 10204:2 10230:1 10415:1 10835:1 11422:1 11930:1 12366:1 13072:1 13308:1 13802:1 14340:1 14909:1 15593:1 16515:1 17908:1 18225:2 18967:1 20534:1 21294:2 22489:1 24105:1 26351:1 26407:1 27815:1 33404:1 35656:1 35667:1 40630:1 46582:1 48359:5 62173:1 66849:1 82742:1 91627:1 91628:1 91629:6 91630:1 91631:1 91632:1 91633:1 91634:1 91635:4 #
0.00095978161945162025238398317839028 2:1 6:1 22:1 26:1 37:1 39:2 55:1 57:1 68:1 71:1 124:1 148:2 154:1 248:1 397:1 595:1 1456:1 1488:1 1588:2 1732:1 1733:1 1757:1 1760:1 1894:1 1904:1 2130:1 2830:1 3038:1 3164:2 5155:1 21808:1 29965:1 #
-0.00095978161945162025238398317839028 2:1 8:3 15:1 16:1 19:1 20:1 22:2 25:1 55:1 57:2 68:1 71:6 78:1 132:1 147:1 148:1 150:2 178:1 217:1 248:1 273:2 275:1 280:1 320:2 337:1 368:1 373:1 388:1 495:1 527:1 577:1 596:1 601:1 602:1 609:1 875:1 887:1 945:1 1194:2 1195:1 1314:1 1377:1 1394:2 1462:1 1500:1 1546:1 1594:1 1600:1 1663:2 1705:1 1717:1 1842:1 1864:1 1865:1 2163:2 2244:1 2327:1 2460:1 2520:1 2537:1 2700:1 3127:2 3138:1 3195:1 3460:2 3479:1 5394:1 5400:1 5439:1 6009:1 6495:1 7661:3 8146:1 9156:1 10345:1 11379:2 16515:3 20684:1 56378:1 61677:1 #
0.00095978161945162025238398317839028 2:1 12:3 22:4 37:1 39:4 47:1 57:3 68:1 71:2 77:2 89:1 100:1 146:3 148:1 206:1 209:1 248:1 312:1 368:1 412:1 502:2 521:1 1298:1 1394:1 1431:2 1462:1 1495:1 1535:1 1802:1 1863:1 1864:1 1885:1 1946:1 1995:1 2005:1 2081:3 2231:1 2312:2 2481:1 2511:1 3165:1 3513:1 3593:1 3686:1 3727:1 3899:1 3928:1 4246:1 4483:1 4626:1 4778:1 6700:3 6918:2 6997:1 7417:1 8752:2 8940:1 10039:1 11037:1 11328:1 11706:1 14411:1 15179:1 15529:1 15680:1 21791:2 22347:1 25065:1 53975:1 53976:1 #
-0.00085423427186357434384711417862945 2:1 8:4 12:5 20:1 22:9 33:1 37:2 39:1 44:1 54:1 55:1 57:2 68:2 71:7 72:14 77:1 88:1 98:1 99:1 100:4 110:1 112:4 124:1 134:1 146:4 148:4 150:1 248:4 267:1 273:2 275:2 342:1 388:1 420:1 439:1 459:2 463:1 477:1 502:1 547:1 556:1 577:1 843:1 852:1 882:1 886:1 1038:1 1328:1 1462:4 1495:10 1521:1 1535:2 1630:1 1653:1 1665:2 1683:1 1772:1 1805:1 1850:1 1851:1 1852:1 1949:3 1956:1 1970:5 2015:1 2227:1 2502:3 2542:1 2552:2 2811:1 2828:1 2990:1 3235:1 3418:1 3494:1 3540:1 3613:1 3653:1 3660:1 3951:1 3966:1 4233:1 4578:1 5106:1 5193:1 6403:4 6445:1 6967:1 7560:1 7601:1 7620:2 9264:1 9272:1 9566:1 9581:1 9770:1 9844:1 10607:1 11041:1 11560:1 12229:1 14712:4 14717:1 16940:1 17330:1 19743:1 36005:1 44767:4 45103:1 45842:1 57340:2 57341:2 57342:1 #
0.00042748034976485905014897959119935 2:1 22:2 32:3 37:1 39:5 47:3 56:1 57:9 68:5 71:7 103:6 104:1 123:4 124:1 132:4 143:3 150:3 199:1 217:3 227:1 230:3 231:2 270:1 272:3 273:3 293:3 295:1 332:1 348:1 374:3 445:2 448:1 520:1 544:1 560:1 580:2 581:1 601:1 602:2 603:3 648:3 871:1 950:1 984:1 1339:2 1360:4 1377:2 1431:1 1438:3 1462:1 1477:2 1495:6 1519:1 1716:3 1730:2 1864:3 1865:3 1894:3 1946:4 2091:1 2124:2 2554:2 2562:1 2567:2 2578:1 2735:7 2751:3 2817:3 2833:1 3174:1 3304:3 3348:1 3364:1 3445:3 3481:1 3496:1 3683:1 3824:1 3919:3 4107:3 4121:1 4413:3 4418:1 4498:3 4568:3 4679:1 4704:1 4816:1 4887:1 5018:3 5050:2 5446:4 6898:3 6922:1 7508:1 7569:2 8391:1 9126:3 9156:1 9302:1 14136:3 18745:3 25193:3 25845:1 25846:3 25847:1 25849:1 30728:2 31492:1 33894:1 33895:1 #
-0.00095978161945162025238398317839028 2:1 6:13 8:2 12:10 14:3 19:1 20:4 22:12 25:1 32:4 37:10 39:22 47:1 54:2 55:4 56:2 57:2 59:2 68:9 71:7 78:1 83:1 93:3 100:3 103:1 105:1 110:1 112:3 113:3 116:2 118:2 123:3 124:2 140:1 146:3 148:3 154:2 215:1 218:1 248:2 254:2 260:1 263:1 272:1 286:1 305:1 312:1 341:2 347:1 348:1 397:1 459:2 497:3 502:1 521:1 541:1 550:1 554:1 587:1 601:1 602:1 609:1 613:2 623:1 682:1 706:1 773:1 860:1 861:2 876:2 882:1 902:1 940:1 1087:2 1112:1 1135:1 1287:1 1377:2 1383:2 1393:1 1462:2 1488:3 1491:1 1492:1 1493:1 1495:1 1519:1 1521:1 1534:1 1545:3 1608:1 1609:1 1653:1 1665:1 1722:1 1863:1 1865:1 1895:1 1904:1 1947:1 1951:1 2017:2 2150:1 2170:1 2308:1 2345:1 2384:1 2386:1 2442:2 2542:1 2552:1 2791:3 2897:1 2930:1 3195:1 3373:1 3414:1 3537:1 3612:1 3660:1 3676:3 3684:2 3825:1 3951:1 3989:2 4067:1 4418:1 4705:2 4783:1 5284:1 5345:1 5365:1 5409:1 5410:1 5460:2 6181:1 6190:1 6404:1 6611:1 6936:1 7172:1 7449:1 7607:1 7657:2 8134:1 8320:1 8712:1 10526:1 11627:3 11633:1 12227:1 13375:1 13591:1 14334:1 14361:1 14417:1 15261:1 17689:1 17797:1 24405:1 25162:1 27408:1 28947:1 37498:1 38488:2 40547:1 41556:3 41783:1 52181:1 57929:1 59197:1 59272:2 59273:1 75067:2 77125:1 78566:2 78567:1 78568:1 78569:1 78570:1 78571:1 78572:1 78573:1 78574:1 78575:1 #
0.00095978161945162025238398317839028 2:1 8:3 9:1 12:14 14:2 15:11 16:1 19:3 20:2 22:15 33:1 34:1 37:1 39:17 44:4 48:1 54:1 55:1 57:5 61:1 68:5 71:11 77:4 93:1 94:1 100:7 103:1 110:1 112:2 123:5 124:2 125:1 145:1 146:3 148:4 154:3 190:2 209:1 215:1 230:1 231:1 248:1 254:1 263:3 267:2 272:3 273:1 275:2 320:1 321:1 341:1 342:1 348:1 361:1 417:1 472:4 502:3 547:1 573:1 601:2 602:4 611:6 648:3 659:1 661:1 675:2 717:1 759:7 775:3 836:1 852:2 874:1 885:1 984:1 1006:1 1009:1 1028:1 1059:1 1276:3 1281:1 1294:1 1322:1 1377:2 1395:1 1408:1 1418:1 1462:1 1485:1 1495:5 1563:1 1566:1 1575:3 1594:1 1599:2 1600:1 1626:2 1628:3 1717:10 1731:1 1733:11 1743:1 1763:1 1777:1 1858:1 1864:1 1865:1 1870:1 1915:1 1950:1 1953:1 1956:3 1974:1 2148:1 2291:1 2542:1 2688:1 2704:1 2734:1 2751:1 2950:1 2951:1 2973:2 3121:1 3127:1 3166:1 3179:1 3182:1 3304:1 3334:3 3345:1 3348:1 3431:1 3481:1 3496:1 3594:1 3628:1 3825:1 3913:1 3951:1 4126:4 4423:1 4555:1 4626:3 5000:1 5259:3 5379:1 5428:1 5805:1 5809:1 5987:2 6290:1 6498:1 7430:2 7530:1 7560:1 7889:1 8133:1 8357:1 8727:2 9946:1 10238:1 10277:1 10606:1 10842:1 11130:1 11322:1 14148:11 14909:1 20620:1 28685:1 28686:2 28687:1 28688:1 #
-0.00095978161945162025238398317839028 2:1 6:7 8:10 12:11 18:1 20:2 22:15 32:2 33:1 37:12 38:1 39:32 47:1 54:1 55:4 57:6 61:3 68:22 71:23 81:1 83:5 88:1 89:1 93:1 100:4 105:1 110:1 112:6 113:4 116:1 118:1 120:1 123:2 124:2 132:2 134:3 146:15 148:6 154:2 188:1 199:1 204:1 206:1 209:4 217:1 227:1 248:5 254:1 260:1 263:2 267:1 270:1 272:2 275:7 291:1 296:2 305:1 308:1 310:2 312:1 320:2 337:1 342:5 347:1 361:1 373:1 381:1 414:2 431:1 459:3 461:1 475:1 485:1 488:2 497:2 501:1 502:1 512:1 514:1 521:2 538:1 541:3 550:1 559:1 565:1 595:1 603:1 604:1 612:1 613:1 651:1 671:2 682:1 706:1 768:1 844:1 852:4 857:1 861:1 875:2 882:2 893:1 899:1 945:2 1040:1 1087:1 1240:1 1273:1 1274:1 1282:1 1310:1 1314:2 1315:1 1323:2 1324:4 1325:1 1328:1 1369:1 1456:2 1462:1 1486:2 1488:1 1493:1 1495:6 1509:1 1543:1 1545:4 1546:2 1561:1 1568:1 1572:1 1584:1 1588:1 1608:1 1632:1 1633:1 1642:1 1649:1 1651:1 1665:1 1726:1 1733:2 1789:1 1818:1 1852:1 1895:2 1947:5 1956:3 2007:1 2013:1 2041:1 2047:2 2071:1 2104:2 2173:1 2236:1 2247:1 2303:1 2323:1 2326:1 2374:1 2463:1 2475:1 2502:2 2518:2 2542:1 2544:1 2552:1 2572:2 2586:1 2593:1 2622:1 2704:1 2751:1 2753:1 2806:1 2836:2 2849:1 2853:1 2922:1 2924:1 2945:1 3008:1 3014:1 3015:1 3156:1 3160:1 3166:2 3195:2 3235:2 3369:1 3537:1 3559:1 3575:1 3610:1 3660:1 3674:1 3857:1 3892:1 3939:1 3959:1 3985:1 4067:1 4147:1 4201:1 4547:1 4565:1 4660:4 4705:1 4777:1 4848:1 5345:1 5409:1 5413:1 5644:1 5713:1 5739:1 6007:1 6182:2 6377:1 6559:1 6932:1 6933:1 6936:1 7071:1 7113:1 7120:1 7561:2 7644:1 7731:1 7780:1 8712:1 8723:2 8751:1 8838:1 9285:1 9526:1 9775:2 9806:1 9970:1 10015:1 10730:1 11114:1 11124:2 11608:1 11936:2 12243:1 13790:1 15173:1 17465:1 17630:1 17757:1 17797:1 18124:1 19265:1 20014:1 20410:1 21676:1 22292:2 22800:1 23738:1 24283:3 24427:1 26645:1 27324:1 27333:1 28461:1 28947:1 29309:1 31659:1 32633:1 32727:1 33311:1 34121:1 49869:1 49876:1 50834:1 55070:1 55463:1 55464:1 98606:2 98607:1 #
-0.00095978161945162025238398317839028 2:1 39:1 65:1 124:1 254:1 459:1 557:1 1495:1 2231:1 3208:1 100029:1 #
-0.00045913724371988247005549332868668 2:1 8:9 12:4 15:11 16:2 20:4 22:34 31:2 33:1 34:1 37:41 39:69 44:2 48:2 51:1 52:25 53:5 54:3 55:6 57:12 59:2 61:1 62:5 66:1 68:22 71:19 77:8 81:4 83:1 89:1 91:1 92:1 93:4 94:2 96:2 100:6 103:2 104:3 110:1 112:11 113:1 119:2 120:2 123:7 128:3 132:5 142:2 143:1 146:39 148:16 154:8 165:1 178:5 183:1 185:2 188:2 199:3 203:1 204:1 209:10 215:1 223:1 225:5 231:2 248:13 254:9 263:2 270:1 272:1 273:3 275:6 277:1 285:1 295:1 304:1 309:2 311:2 324:1 327:1 332:3 336:8 337:1 339:2 340:1 342:4 347:2 348:1 349:1 355:3 359:4 364:1 366:1 373:2 374:2 388:1 389:1 397:1 412:11 417:1 422:1 438:1 448:3 459:3 460:1 470:1 491:1 497:2 499:2 502:3 514:1 516:1 521:2 526:1 538:1 543:1 544:1 559:1 565:2 577:2 581:2 589:2 602:1 625:2 643:3 648:2 661:1 671:4 675:1 677:1 696:1 705:2 710:1 718:1 728:1 729:1 736:1 765:5 836:1 839:1 852:4 860:2 861:1 867:2 874:1 877:2 882:1 883:2 902:1 930:1 949:2 984:1 1009:1 1021:1 1065:1 1088:2 1107:1 1275:2 1276:3 1278:8 1292:2 1327:1 1328:1 1356:4 1360:5 1462:1 1464:1 1493:1 1495:1 1498:3 1509:1 1515:1 1519:1 1521:1 1568:1 1577:1 1578:1 1594:2 1600:1 1602:4 1612:1 1615:1 1625:2 1628:1 1629:1 1633:2 1663:1 1687:1 1717:2 1719:1 1732:1 1740:1 1758:1 1764:2 1771:1 1778:1 1809:1 1827:2 1851:3 1863:1 1864:1 1893:1 1919:2 1921:1 1948:1 1958:5 2001:2 2005:2 2018:1 2032:1 2036:1 2047:1 2119:1 2127:5 2129:1 2152:1 2190:2 2202:1 2230:1 2236:1 2258:1 2299:1 2326:1 2385:1 2414:2 2431:1 2436:1 2437:1 2497:1 2498:2 2518:1 2559:1 2670:1 2689:2 2720:1 2757:1 2788:1 2811:1 2849:1 2905:1 2925:1 2972:1 3120:1 3140:1 3167:1 3303:1 3534:2 3537:1 3570:1 3592:2 3644:1 3814:1 3851:1 3859:2 3892:11 3904:2 3951:1 4067:1 4119:1 4153:1 4180:1 4292:1 4555:1 4596:2 4684:1 4838:2 4860:2 4896:2 4906:1 5114:1 5123:1 5146:1 5258:2 5271:2 5394:1 5539:1 5754:1 5841:1 6009:1 6069:1 6078:1 6462:2 6630:2 6705:1 6716:3 6798:1 6832:1 7034:1 7035:1 7178:1 7185:1 7193:2 7343:2 7381:1 7553:2 7619:1 7704:1 7763:1 7967:1 8057:1 8089:1 8375:2 8390:2 8760:3 8851:2 8874:2 9173:3 9298:2 9391:1 9437:1 9447:1 9594:1 9632:1 9637:1 9659:1 9663:1 9676:1 9720:1 9988:1 10169:1 10204:1 10377:1 10508:1 10788:1 11918:1 12821:2 13037:1 13084:1 13097:1 13186:1 13198:2 13249:1 13346:1 13860:2 13873:1 13901:1 14024:1 14409:1 14697:4 15374:7 15491:1 16021:1 16067:1 16186:1 17797:1 17888:1 17920:1 18230:1 18301:1 18329:1 18750:2 19110:1 19665:1 19744:1 20433:1 22063:1 22486:1 22681:3 23009:1 23509:1 24055:1 24376:1 25294:1 25370:1 25553:1 25771:2 26660:2 26742:1 27408:1 28046:1 33366:1 36972:1 37820:3 38503:1 41025:1 41844:1 43837:1 46900:1 50292:1 52523:1 53105:8 54588:1 54709:1 55362:5 55369:1 55404:2 55417:1 55419:1 55426:1 55441:2 55478:1 55507:2 56563:1 57050:2 57570:1 57571:2 57572:1 57573:13 57574:1 57575:1 57576:6 57577:3 57578:4 57579:2 57580:2 57581:2 57582:3 57583:1 57584:2 57585:1 57586:2 57587:1 57588:1 57589:2 57590:1 57591:1 57592:1 57593:1 57594:1 57595:1 57596:1 57597:1 57598:1 57599:1 57600:1 57601:1 57602:1 57603:1 57604:1 57605:1 57606:1 57607:1 57608:1 57609:1 57610:1 57611:2 57612:1 57613:1 57614:1 #
0.00095978161945162025238398317839028 2:1 8:1 12:1 14:1 22:1 37:2 39:2 55:1 57:1 61:3 71:3 102:1 112:1 113:1 124:1 146:1 148:1 209:1 247:5 248:1 249:1 304:1 368:1 478:1 535:1 554:1 1300:1 1350:1 1462:1 1495:2 1517:1 1756:1 1773:1 1857:1 1896:1 2060:1 2548:1 2578:1 2796:1 3541:1 5625:1 6823:1 8751:1 10068:1 11813:2 22608:1 #
0.00095978161945162025238398317839028 2:1 8:1 12:2 22:3 37:2 39:1 68:1 71:3 112:1 124:3 132:1 143:2 148:1 154:1 199:1 209:1 231:2 243:1 248:1 273:1 324:1 342:1 347:1 393:1 412:1 448:1 472:1 475:1 502:1 521:2 820:1 1431:1 1462:2 1488:1 1495:1 1498:1 1625:1 1626:1 1741:1 1869:1 1894:1 2450:1 2518:1 2552:1 2555:1 3067:1 3671:1 3890:1 3945:2 4056:1 4654:2 5710:1 6154:1 6433:2 7246:1 7319:2 7320:2 19515:2 26108:1 40791:1 45821:1 45822:1 45823:1 #
0.00095978161945162025238398317839028 2:1 6:2 8:5 12:3 13:1 14:1 15:1 22:4 24:1 37:2 39:5 57:3 68:2 71:8 100:1 110:1 112:4 113:2 118:1 123:3 130:2 132:3 134:1 144:1 146:3 148:4 154:2 199:5 204:1 206:2 209:2 230:1 248:2 263:3 268:1 271:1 273:1 304:3 305:1 311:1 339:1 344:1 345:1 349:1 368:1 388:1 394:3 445:1 472:4 559:4 568:1 613:1 669:1 671:1 675:1 706:1 726:2 842:1 874:1 890:1 1108:1 1399:1 1464:1 1488:1 1491:1 1495:1 1602:1 1653:2 1777:1 1863:2 2007:1 2084:3 2190:1 2277:1 2288:1 2427:1 2577:1 2605:1 2658:2 2835:1 2911:1 2952:2 3127:1 3479:1 3701:1 3739:1 4543:1 4657:1 4790:1 5245:1 5944:1 6978:1 9832:3 11882:1 12371:1 12536:1 12537:1 14135:1 #
0.00095978161945162025238398317839028 2:1 6:2 8:2 12:3 15:3 16:1 22:9 39:2 57:1 59:1 68:1 71:3 77:1 124:1 128:1 140:1 148:4 150:1 217:1 230:1 368:1 502:2 601:1 729:1 759:4 761:1 875:2 1009:1 1014:3 1025:1 1117:1 1377:2 1393:1 1406:1 1446:1 1464:2 1474:1 1488:1 1600:1 1732:1 1733:1 1767:1 1813:1 1864:1 1865:1 1874:1 1904:1 1922:1 1948:1 2076:2 2515:1 2606:2 3241:1 3269:1 3590:1 3686:1 3890:1 4597:1 4621:2 4831:1 4941:1 5018:2 5485:1 7642:1 8336:2 8337:1 8338:2 8339:1 8340:1 8341:1 8342:1 8343:1 8344:1 8345:1 8346:1 8347:1 8348:1 8349:1 8375:1 8914:1 10100:2 11514:1 14827:1 14891:1 20728:1 28177:1 28922:1 30061:1 #
-0.00095978161945162025238398317839028 2:1 39:2 57:2 71:2 248:1 254:1 263:1 272:1 280:1 459:1 472:1 601:1 602:1 675:1 731:1 1495:1 1602:1 1733:4 1934:1 2291:1 2577:1 2598:1 4423:2 6734:1 54579:2 75048:1 75528:1 #
-0.00095978161945162025238398317839028 2:1 111:1 347:1 403:1 547:1 2274:1 2853:1 3127:1 3423:1 3606:1 3676:1 7056:1 7107:1 11353:1 11742:1 13392:1 18318:1 29296:1 36220:1 36842:1 37811:1 42416:1 59670:1 59975:1 60014:1 61534:1 63632:1 64702:1 67011:1 72074:1 76565:1 76634:1 76635:1 76636:1 76637:1 76638:1 76639:1 76640:1 76641:1 76642:1 76643:1 76644:1 76645:1 76646:1 76647:1 76648:1 76649:1 76650:1 76651:1 76652:1 76653:1 76654:1 #
0.00095978161945162025238398317839028 2:1 6:2 12:1 15:2 39:2 57:1 71:1 199:1 364:1 432:1 675:1 852:1 1038:1 1293:1 1310:1 1522:1 1595:1 1948:1 2409:1 2681:1 3121:1 4654:1 5109:1 5574:1 #
0.00095978161945162025238398317839028 2:1 6:1 12:2 14:1 22:2 39:1 56:1 57:1 71:1 96:1 112:1 113:1 116:1 146:1 148:2 185:1 227:1 248:2 267:1 273:2 275:2 397:1 412:1 502:1 820:1 852:2 1053:2 1464:1 1484:2 1525:1 1535:1 1545:1 1690:1 1694:1 1782:1 1853:1 1863:1 2327:1 2542:1 2552:1 2751:1 3560:1 3816:1 4745:1 5877:1 6142:1 6958:1 9327:1 9646:1 12105:1 29375:1 #
0.00095978161945162025238398317839028 2:1 8:1 12:1 15:3 20:1 22:1 39:3 42:1 49:1 68:4 71:1 77:2 78:2 118:1 146:1 148:2 154:1 248:1 254:1 275:2 280:1 342:1 370:1 417:2 478:1 502:1 589:1 596:1 874:1 1006:1 1308:1 1369:1 1488:1 1491:1 1560:1 1665:1 1767:1 1857:1 1894:1 1904:1 3020:1 4008:1 5713:2 5974:1 6245:1 6580:1 7206:1 11113:2 14064:1 #
0.00095978161945162025238398317839028 2:1 6:1 22:1 37:5 38:1 39:3 42:1 44:1 47:1 68:4 71:3 83:1 100:1 103:1 115:1 121:2 123:1 125:1 143:3 231:1 303:1 304:1 321:1 347:1 349:2 423:1 474:1 517:1 547:1 666:2 820:2 949:1 1382:1 1383:1 1545:1 1561:2 1578:1 1683:1 1779:1 1914:1 2100:1 2153:1 2329:1 2397:1 2503:1 2748:1 2931:1 2952:1 2973:1 3494:1 3760:1 3895:1 4845:1 4903:1 5584:2 6142:1 8837:1 9001:1 9007:1 9404:1 9464:1 12802:1 15756:1 20199:1 #
-0.00095978161945162025238398317839028 2:1 8:3 15:1 16:1 19:1 20:1 22:2 25:1 55:1 57:2 68:1 71:6 78:1 132:1 147:1 148:1 150:2 178:1 217:1 248:1 273:2 275:1 280:1 320:2 337:1 368:1 373:1 388:1 495:1 527:1 577:1 596:1 601:1 602:1 609:1 875:1 887:1 945:1 1194:2 1195:1 1314:1 1377:1 1394:2 1462:1 1500:1 1546:1 1594:1 1600:1 1663:2 1705:1 1717:1 1842:1 1864:1 1865:1 2163:2 2244:1 2327:1 2460:1 2520:1 2537:1 2700:1 3127:2 3138:1 3195:1 3460:2 3479:1 5394:1 5400:1 5439:1 6009:1 6495:1 7661:3 8146:1 9156:1 10345:1 11379:2 16515:3 20684:1 56378:1 61677:1 #
0.00095978161945162025238398317839028 2:1 4:1 12:2 14:4 15:1 16:1 20:4 22:6 37:1 39:5 44:2 52:1 68:1 71:7 100:1 110:1 123:1 128:1 132:2 146:2 179:1 199:1 209:2 248:1 263:1 270:1 273:1 275:3 276:1 278:1 342:1 388:1 445:1 472:1 502:1 591:1 602:1 604:1 682:1 697:2 852:2 1434:1 1495:1 1498:3 1514:1 1594:1 1633:1 1731:1 1732:1 1733:1 1757:1 1799:1 1838:1 1863:2 1889:1 1894:1 1935:1 1949:3 1995:1 2056:1 2270:1 2491:1 2549:1 2559:1 2608:1 2853:3 3173:1 3241:1 3441:1 3966:1 3988:1 4053:2 4201:1 4209:2 4579:1 4622:2 4658:1 6102:1 6540:2 7235:2 8107:1 11690:1 30657:6 36005:1 #
0.00093658969186164570640273918655794 2:1 6:3 8:6 12:9 19:6 22:7 26:1 37:6 38:1 39:6 54:2 55:2 57:3 68:5 71:9 83:2 110:1 112:2 113:2 116:1 118:1 123:2 124:1 132:3 145:1 146:4 148:1 154:2 179:1 185:2 199:2 204:1 209:3 217:1 227:1 248:2 263:1 267:1 269:1 273:4 275:1 287:1 324:2 342:2 397:1 412:1 416:1 502:3 556:1 569:1 611:2 697:1 726:1 744:1 852:1 950:2 1257:1 1303:1 1325:1 1370:1 1408:1 1434:1 1435:1 1456:1 1462:1 1463:1 1483:1 1495:2 1498:2 1545:2 1546:1 1594:2 1602:1 1608:1 1630:1 1636:1 1642:1 1659:1 1730:2 1922:1 1934:1 1948:1 2170:1 2177:2 2212:1 2226:1 2398:1 2544:1 2546:1 2554:1 2593:1 2646:1 2683:1 2853:3 2897:1 2945:1 3190:1 3194:1 3195:1 3197:1 3513:1 3573:1 3686:1 4180:1 4570:1 5388:1 5828:1 5915:1 6301:1 6559:1 7655:1 7731:1 7752:1 7753:1 7967:1 8109:1 9027:1 10733:1 11033:1 11147:1 11148:1 11149:1 11150:1 11151:1 18679:1 #
0.00065466669388122172325295000661072 2:1 3:2 6:2 8:16 12:17 13:6 14:1 15:13 16:5 18:1 19:1 20:7 22:30 24:1 25:2 26:1 29:1 33:1 37:11 39:40 49:1 53:1 54:1 55:1 56:1 57:28 59:1 64:1 68:9 71:20 77:6 81:3 83:1 100:4 103:2 112:2 118:1 123:7 124:8 130:1 132:3 142:2 146:27 148:15 150:3 154:5 198:1 199:5 204:1 209:3 244:1 248:18 263:9 267:2 269:2 271:1 275:1 277:1 280:1 300:1 304:27 328:1 329:1 339:22 341:1 342:1 355:3 362:1 368:6 394:9 397:2 406:2 412:1 417:1 423:2 448:2 451:1 472:1 492:1 495:2 501:1 502:1 511:8 514:1 528:1 537:1 554:1 577:1 581:1 583:1 602:2 604:1 609:23 613:1 654:1 658:1 659:1 669:2 671:3 674:1 675:1 682:1 692:1 697:1 709:1 721:1 729:1 738:1 763:1 772:1 807:1 809:4 838:1 865:1 867:1 869:1 874:2 875:1 886:1 940:2 964:1 1110:2 1137:2 1276:1 1293:1 1342:1 1377:1 1393:1 1420:1 1456:1 1462:3 1474:1 1477:1 1488:1 1491:1 1492:1 1493:2 1495:4 1509:1 1519:2 1521:2 1526:1 1588:2 1594:2 1595:1 1600:1 1602:2 1608:1 1625:2 1633:1 1696:1 1716:1 1722:1 1729:1 1732:1 1777:1 1788:1 1835:1 1839:1 1840:1 1856:1 1861:3 1863:1 1864:9 1865:9 1920:1 1921:1 1948:1 1953:2 1959:2 2047:1 2120:1 2202:1 2219:2 2283:1 2291:1 2346:1 2351:1 2357:2 2406:1 2515:1 2554:1 2557:1 2560:1 2569:1 2582:1 2598:1 2640:1 2670:3 2684:1 2799:1 2852:6 2987:4 3007:1 3061:1 3082:1 3095:1 3121:1 3204:2 3269:3 3276:4 3373:1 3377:3 3403:1 3411:1 3426:1 3431:1 3439:1 3594:1 3766:1 3767:3 3890:2 3915:1 4039:1 4060:1 4447:1 4568:1 4578:1 4580:1 4599:1 4684:1 4906:1 4941:1 5090:1 5214:1 5321:1 5330:1 5534:1 5754:1 5843:2 6039:1 6154:1 6186:1 6356:1 6474:1 6611:1 6661:1 6973:1 7066:1 7497:3 7905:1 7982:1 8087:1 8375:1 8391:1 8422:1 8443:1 8728:1 8730:2 8746:1 8866:1 9095:1 9444:1 9568:1 9628:1 9876:1 9926:1 9982:1 10030:1 10254:1 10380:1 10693:2 11333:1 11641:1 12672:1 13234:1 13737:1 14319:1 14807:1 15426:1 15785:1 15984:1 16419:1 17028:1 17032:1 17044:1 17967:1 18041:1 18122:1 18569:1 19207:2 19222:1 20281:1 20289:2 20718:1 20774:1 21296:1 21896:1 22533:1 22678:2 22925:2 23896:1 24302:1 25123:1 25236:1 26434:1 26436:1 26472:1 26739:1 27286:1 27561:1 27939:1 27954:1 28105:1 28823:1 28922:1 28936:1 29314:1 30197:1 31647:2 34922:1 35139:32 35149:1 35927:1 38249:1 38323:1 38668:1 39243:1 39537:1 40133:1 40252:1 40289:1 40471:4 41870:1 43024:1 43318:1 43836:1 44564:1 44884:1 45015:1 47516:1 47517:1 47518:1 47519:1 47520:1 47521:1 47522:1 47523:1 47524:1 47525:1 47526:1 47527:1 47528:1 47529:1 47530:1 47531:1 47532:1 47533:1 47534:1 47535:1 47536:1 47537:1 47538:1 47539:1 47540:1 47541:1 47542:1 47543:1 47544:1 47545:1 #
-0.00095978161945162025238398317839028 2:1 8:19 12:4 15:9 18:2 20:4 22:20 24:5 26:1 34:2 37:28 39:73 44:1 51:3 52:19 53:2 54:3 55:8 56:1 57:14 59:2 61:2 62:5 68:35 71:27 77:8 79:2 81:1 83:5 89:1 91:1 92:1 93:7 94:2 96:1 100:5 102:1 103:1 105:1 108:1 110:1 112:6 113:1 116:3 118:3 119:1 120:1 123:10 124:3 125:2 128:1 132:1 134:1 140:1 141:1 143:14 144:7 146:50 148:12 150:4 152:1 154:6 178:1 185:1 199:1 202:4 203:3 204:3 208:3 209:8 212:1 215:1 221:1 225:2 231:2 244:1 248:12 249:1 254:10 263:1 265:2 267:1 270:1 271:2 273:3 275:5 278:1 285:8 287:1 291:3 296:2 300:1 304:2 311:2 327:2 334:1 336:3 337:3 340:7 341:1 342:10 347:1 348:3 349:1 350:3 355:1 356:1 366:1 373:4 389:2 394:1 399:1 406:1 408:1 412:3 420:4 431:1 432:2 440:1 441:4 445:3 448:8 450:1 451:1 453:1 459:6 460:3 470:2 472:1 485:1 499:1 504:1 514:1 516:1 525:1 538:1 550:1 576:1 577:1 588:1 599:1 623:1 629:1 630:1 646:1 648:2 659:2 661:1 666:1 670:1 671:3 675:2 696:1 697:1 706:1 710:1 717:1 724:1 735:1 736:1 757:1 765:2 768:1 769:1 785:1 836:1 839:1 852:6 861:2 864:2 868:1 875:1 877:2 882:3 883:2 886:1 893:1 898:1 902:1 903:1 930:2 941:1 948:1 1009:1 1016:1 1021:1 1029:2 1045:5 1066:1 1069:1 1136:1 1164:1 1273:2 1275:1 1276:3 1278:9 1292:3 1293:3 1304:2 1328:1 1335:3 1343:1 1356:3 1360:2 1367:1 1431:1 1456:3 1462:2 1485:1 1487:1 1502:1 1503:1 1517:6 1524:1 1526:1 1532:2 1575:1 1594:1 1595:1 1602:6 1610:2 1613:1 1629:1 1633:2 1640:1 1661:1 1674:1 1700:1 1717:1 1722:1 1732:1 1747:1 1758:2 1773:4 1777:1 1815:1 1835:1 1840:2 1861:1 1893:1 1948:1 1953:3 1958:1 1970:1 2001:1 2016:1 2032:1 2036:2 2039:1 2044:1 2066:1 2103:1 2114:1 2127:1 2236:2 2244:3 2247:1 2288:1 2298:1 2300:1 2312:5 2435:1 2453:1 2458:1 2461:1 2473:1 2502:1 2518:1 2520:1 2572:1 2587:1 2628:2 2630:2 2665:1 2681:3 2689:1 2695:5 2710:1 2727:1 2748:1 2757:1 2775:1 2788:1 2789:1 2839:2 2879:1 2883:1 2891:1 2893:1 2894:1 2895:1 2897:2 2901:2 2949:1 2960:1 3006:1 3113:1 3163:2 3335:1 3455:1 3493:2 3497:2 3513:1 3526:1 3534:10 3537:1 3592:1 3621:1 3692:1 3724:2 3829:1 3849:1 3851:1 3871:1 3881:1 3892:18 3895:1 3918:3 3922:1 3951:1 4084:1 4115:1 4117:1 4137:1 4160:1 4164:1 4189:1 4543:1 4555:1 4587:1 4615:2 4669:1 4816:1 4817:1 4831:2 4841:1 4852:1 4905:1 4906:1 5073:1 5086:1 5217:1 5242:1 5267:1 5335:1 5500:1 5539:1 5607:1 5610:1 5617:4 5625:1 5642:1 5697:1 5739:1 5881:3 5999:4 6063:1 6146:1 6172:1 6199:1 6449:1 6513:1 6528:1 6582:1 6678:1 6689:1 6798:3 6859:1 6878:1 7034:1 7185:1 7186:1 7193:4 7445:1 7497:1 7511:1 7534:2 7536:1 7553:5 7605:1 7618:1 7665:1 7667:1 7772:1 8018:1 8057:2 8105:1 8199:1 8273:1 8375:1 8834:1 8846:1 8861:1 9000:2 9001:1 9173:1 9287:1 9325:1 9343:1 9347:1 9385:1 9632:1 9637:1 9669:1 9720:1 9731:1 9751:2 9807:1 9940:1 9992:1 10016:1 10025:2 10167:1 10254:1 10573:1 10591:1 11213:1 11390:1 11400:1 11430:2 12331:1 12661:2 12821:1 13044:1 13282:1 13463:1 13631:1 13864:1 13901:1 14615:1 15291:1 15359:1 15374:6 15481:1 15526:1 15650:1 16008:2 16242:1 16373:1 16720:1 17080:7 17098:1 17148:3 17443:1 17808:1 17888:1 17920:1 18620:5 20157:1 20386:8 21733:1 22486:1 22937:1 23509:1 24263:1 24376:1 24461:1 25169:1 25370:1 25771:2 26404:1 27597:1 27859:1 27871:1 28215:5 30693:1 33756:1 33886:4 35371:1 37827:2 39560:1 39982:1 41025:1 41910:2 43058:1 43837:1 47033:1 47707:2 47708:1 49511:1 50505:1 53609:6 54586:1 54588:1 54709:1 55388:1 56220:1 57124:1 57572:1 57578:1 57589:1 57591:1 57593:1 57596:1 57910:1 58796:1 62954:1 62964:1 65270:1 66387:3 66947:1 72156:2 73300:2 75051:8 75054:1 75059:2 76047:1 76050:1 77826:3 78670:2 83037:1 83038:1 83040:1 83041:1 83043:8 83045:3 83199:1 95699:1 98204:1 98205:1 98206:2 98207:1 98208:2 #
-0.00095978161945162025238398317839028 2:1 6:29 8:4 12:12 14:5 15:4 20:2 22:10 24:1 32:2 37:10 39:39 47:1 54:1 55:6 57:14 59:4 68:16 71:38 77:2 83:1 93:2 96:1 100:6 102:1 105:1 112:7 113:2 116:2 123:7 124:1 128:1 130:1 132:1 134:4 142:1 145:1 146:14 148:7 154:3 186:5 204:1 206:1 220:5 243:1 244:1 248:6 254:1 263:11 267:1 272:1 273:5 275:6 278:1 285:4 296:6 299:1 300:1 305:1 308:1 320:1 327:1 328:1 335:2 341:6 342:2 348:3 355:1 361:1 397:3 406:1 417:1 434:1 448:1 459:2 461:2 502:1 511:1 521:5 547:1 554:1 568:1 569:1 573:2 577:3 609:5 611:1 613:8 659:2 675:3 682:2 697:2 718:2 726:1 762:3 775:2 809:2 852:4 869:1 875:2 876:1 877:1 902:1 940:1 945:1 993:1 1016:1 1065:2 1194:1 1293:1 1310:1 1337:1 1415:1 1434:1 1435:1 1462:3 1464:1 1483:1 1488:9 1493:2 1495:4 1515:1 1519:4 1521:2 1523:1 1525:1 1534:1 1545:12 1546:1 1561:1 1588:2 1594:3 1660:2 1688:5 1777:1 1835:1 1842:2 1853:1 1861:2 1865:4 1894:1 1904:1 1921:6 1947:1 1953:1 2044:1 2064:1 2106:1 2152:1 2170:1 2177:1 2226:1 2227:1 2274:1 2278:2 2304:2 2308:5 2309:1 2345:1 2351:1 2360:1 2406:1 2430:1 2456:1 2544:1 2546:2 2555:1 2572:2 2587:1 2606:1 2659:1 2665:1 2734:1 2751:1 2776:1 2821:1 2840:1 2930:2 2951:1 2987:1 3182:1 3208:1 3284:1 3348:1 3369:1 3377:1 3398:1 3474:2 3505:1 3660:2 3767:2 3771:1 3869:1 3919:1 3920:1 4038:2 4167:1 4201:1 4209:4 4483:1 4585:1 4601:1 4667:2 4670:6 4693:1 4724:3 5124:2 5185:1 5205:1 5394:2 5446:1 5456:4 5592:1 5644:1 5701:1 6063:1 6114:1 6145:1 6187:1 6569:1 7001:1 7071:1 7113:1 7752:1 7774:1 8235:1 8320:3 8712:1 8751:1 8883:2 9305:1 9348:2 9771:1 9863:1 9976:1 10025:2 10757:1 11141:2 11505:1 11761:1 13263:1 13346:1 14073:2 14172:1 14330:1 15783:2 15848:2 16222:3 16993:2 18577:1 20627:1 20718:1 21296:1 22103:1 23834:1 25162:1 25558:1 26704:5 31818:1 40568:1 40677:1 49862:1 49875:1 56510:1 56907:1 57920:2 63405:1 72294:1 75988:4 75989:1 75990:1 75991:1 75992:1 75993:6 75994:2 75995:1 75996:1 #
-0.00095978161945162025238398317839028 2:1 13:1 34:1 39:1 44:1 48:1 71:1 77:1 103:1 146:2 154:1 217:1 275:1 280:1 304:1 397:1 767:2 871:1 875:1 993:1 1360:1 1377:1 1571:1 1935:1 1965:2 2023:1 2124:1 2291:1 2386:1 2606:2 3179:1 5357:1 6734:1 6898:1 8986:1 13371:1 15650:1 34996:1 35843:1 59942:1 60098:1 74206:1 #
0.00057911396000673808198005998448821 2:1 22:2 24:4 27:5 30:2 37:1 39:2 57:3 71:1 112:1 128:1 132:3 144:3 148:1 167:1 206:1 209:1 231:3 280:1 381:1 577:1 599:1 603:1 604:3 1009:1 1010:1 1016:2 1021:1 1025:1 1273:1 1371:1 1399:2 1431:1 1462:1 1573:1 1577:1 1595:1 1894:1 2047:2 2481:4 2503:2 2549:1 2608:1 2715:2 3125:1 3149:1 3167:1 3345:1 3397:1 3459:1 3493:1 3966:1 4107:1 4556:1 5254:1 6705:1 10270:1 13148:1 15231:1 30095:1 #
0.00095978161945162025238398317839028 2:1 7:1 8:4 11:1 12:20 15:2 20:1 22:4 25:3 30:1 34:2 37:4 39:11 44:4 45:1 47:1 48:1 61:1 64:1 68:7 71:12 77:3 79:1 89:3 92:1 96:5 100:1 112:8 113:3 116:1 123:2 125:1 132:5 134:1 143:3 144:1 145:2 146:5 148:7 150:3 154:1 170:1 185:1 199:1 209:2 230:2 231:1 241:1 248:7 263:5 268:1 273:1 280:1 284:1 285:1 295:2 300:1 304:2 305:3 308:1 327:1 368:1 394:1 397:2 416:1 429:1 430:1 459:5 504:1 511:3 514:1 519:1 528:1 559:1 571:1 581:1 603:1 609:6 623:1 631:1 641:1 648:1 673:1 675:1 708:1 711:1 723:1 726:1 728:1 748:1 772:1 786:1 874:3 876:2 877:1 945:1 949:1 950:1 956:1 960:2 964:1 984:1 993:1 994:1 1002:1 1005:1 1006:2 1009:1 1010:1 1016:1 1021:1 1025:1 1029:1 1035:1 1038:1 1041:1 1045:1 1048:1 1053:1 1054:1 1055:1 1064:2 1066:1 1068:1 1069:1 1074:1 1075:1 1079:1 1083:2 1088:1 1251:1 1281:1 1406:1 1477:3 1491:1 1493:1 1495:7 1519:1 1526:1 1543:1 1544:1 1594:4 1608:6 1618:1 1625:1 1697:1 1712:1 1714:2 1722:1 1763:1 1777:1 1840:1 1861:1 1863:3 1864:2 1865:3 1870:1 1922:1 2035:12 2036:1 2039:1 2071:1 2098:2 2119:1 2121:2 2227:1 2278:2 2360:1 2410:1 2471:1 2561:1 2567:1 2618:1 2626:2 2773:1 2869:1 2883:1 3095:1 3172:1 3204:1 3223:2 3256:1 3267:3 3309:1 3348:1 3369:1 3415:1 3456:1 3669:1 3939:1 4090:1 4416:1 4666:1 4679:1 4735:1 4790:1 4941:1 5130:1 5421:1 5500:1 6034:1 6403:1 6540:3 6564:1 7011:1 7065:1 7145:1 7158:1 7357:1 7744:1 7894:1 8145:1 8310:1 8726:1 8728:1 8911:1 9261:1 9287:1 9568:1 9686:1 9778:1 9926:1 9940:1 10143:1 10484:2 11059:1 11430:1 12321:1 12766:1 13119:1 13251:2 13300:1 13403:1 14361:1 14807:1 14898:1 15658:1 15800:1 16266:1 16419:2 16799:1 17328:1 17820:1 18205:1 18573:1 18728:1 19193:1 20126:1 20289:1 20419:1 20700:3 20728:1 20729:1 22326:1 22772:1 22814:1 23943:1 24648:1 25049:1 25099:1 26009:1 26617:1 26739:1 27415:1 27553:1 27923:1 27924:1 27925:1 27926:1 27927:1 27928:1 27929:2 27930:1 27931:1 27932:1 27933:1 27934:1 27935:1 27936:1 27937:1 27938:1 27939:1 27940:1 27941:1 27942:1 27943:1 27944:1 27945:1 27946:1 27947:1 27948:1 27949:1 27950:1 27951:1 27952:1 27953:1 27954:1 27955:1 27956:1 #
0.00095978161945162025238398317839028 2:1 4:1 6:2 8:6 12:10 14:3 15:3 16:3 19:2 20:1 22:7 33:1 37:3 39:13 44:1 53:1 57:4 61:4 68:1 71:8 100:2 110:1 118:1 123:4 124:2 125:1 128:1 130:1 132:3 146:8 154:4 199:1 209:1 217:1 248:3 263:2 273:3 275:1 280:2 304:1 332:1 342:2 397:1 417:1 432:1 472:2 502:6 504:1 506:1 511:1 519:1 599:1 602:2 611:1 661:1 721:1 726:1 728:1 768:1 836:1 867:2 874:3 882:1 886:1 892:1 1255:1 1257:1 1287:1 1431:1 1462:4 1487:1 1488:1 1495:9 1498:2 1508:1 1517:1 1521:1 1526:1 1534:2 1542:3 1545:5 1579:1 1594:2 1658:2 1717:1 1733:1 1777:3 1839:2 1861:1 1863:1 1865:3 1915:2 1922:1 1956:1 1970:1 1974:1 2035:1 2186:1 2202:1 2216:2 2291:1 2336:1 2502:8 2543:1 2552:1 2586:1 2646:1 2670:27 2828:1 2853:8 2971:2 3007:1 3195:3 3317:1 3318:1 3345:4 3440:1 3476:1 3494:1 3614:1 3671:2 3686:5 3747:1 3930:1 3989:3 4107:2 4180:1 4693:1 5211:1 5394:1 5644:1 5774:1 5775:1 5776:1 5878:1 6135:1 6197:1 6428:1 6977:2 7916:1 8669:1 8761:1 9308:1 9363:1 10341:1 11812:1 11908:2 14319:3 14898:1 19207:2 20186:1 22810:1 23753:2 24285:1 29973:2 39108:1 42300:1 #
-0.00095978161945162025238398317839028 2:1 12:1 13:1 22:2 37:1 57:1 83:1 100:1 275:1 412:1 417:2 613:1 852:1 871:1 874:1 1495:2 1630:1 1713:1 1815:1 2076:1 2195:1 2217:1 3348:1 4126:2 44158:1 99395:1 #
0.00095978161945162025238398317839028 2:1 8:2 15:2 33:1 37:1 39:3 52:2 55:2 68:3 71:1 77:2 110:1 146:2 227:1 565:1 1194:1 1311:2 1587:2 1928:1 2147:1 2323:1 2544:2 2616:2 3526:1 4853:3 5817:1 6038:1 6096:1 #
-0.00095978161945162025238398317839028 2:1 6:1 8:1 18:1 30:2 100:1 547:1 573:1 599:1 1408:1 2957:2 7280:1 9016:1 24285:1 24726:1 32970:1 33486:1 40675:1 54914:1 56063:1 56955:2 57517:1 68014:1 68352:1 71777:1 72527:1 73495:1 #
-0.00095978161945162025238398317839028 2:1 6:9 8:4 12:5 20:4 22:15 24:1 32:2 37:7 38:1 39:25 47:2 55:2 57:8 59:1 61:1 68:7 71:10 93:2 112:2 113:4 123:1 124:1 134:1 140:2 144:1 146:12 148:4 154:1 209:1 248:2 260:1 273:2 280:2 285:1 299:1 300:1 304:1 308:2 342:4 345:1 349:1 373:1 376:3 420:4 452:1 459:2 497:1 502:2 521:1 557:1 570:1 613:4 651:5 806:1 852:2 867:1 882:1 883:1 945:3 976:1 1021:1 1040:1 1065:1 1251:2 1281:1 1304:1 1323:2 1393:1 1462:1 1483:2 1488:2 1495:4 1502:1 1540:2 1545:6 1561:1 1568:1 1580:1 1584:4 1588:2 1594:2 1863:1 1865:2 1894:1 1921:1 1947:1 2018:1 2137:1 2184:4 2217:1 2247:1 2248:1 2288:1 2306:1 2357:1 2481:1 2502:1 2642:1 2945:1 3256:1 3441:1 3608:1 3609:3 3628:1 3894:1 4209:1 4452:1 4633:1 4655:1 4660:2 4666:2 4706:1 5135:1 5175:1 5394:1 5409:1 5528:1 6404:3 6947:1 6954:1 7657:1 7667:1 7786:1 8040:2 8320:1 8357:1 9156:1 9302:1 9719:1 9775:1 10606:1 12098:1 20369:1 20480:1 23307:1 25123:1 25162:2 25172:1 30754:1 34646:1 34969:1 47937:1 62996:1 74262:1 77866:1 77867:2 77868:1 77869:1 #
-0.00095978161945162025238398317839028 2:1 15:1 16:1 22:9 96:1 105:1 116:1 126:1 130:1 146:1 311:1 347:1 445:1 450:1 470:1 491:2 602:1 671:1 702:1 718:1 726:1 728:1 762:1 838:1 852:1 1399:1 1526:1 1600:1 1604:1 1861:1 1886:1 1919:1 1935:1 1978:1 2181:1 2202:1 2295:1 2360:1 2473:1 2582:1 2740:1 2809:1 2853:1 2930:1 3122:1 3127:1 3330:1 3479:1 3534:2 3767:1 3792:1 3978:1 4706:1 5110:1 5187:1 7107:1 7421:1 8375:1 8443:1 8651:2 8712:1 8723:1 9315:1 9384:1 9502:1 10965:1 11044:1 15346:1 16074:1 16106:1 17235:1 20400:1 20937:1 25703:1 27137:1 28309:1 55829:1 66477:1 68828:1 68829:1 68830:1 68831:1 #
0.00095978161945162025238398317839028 2:1 8:6 12:3 19:3 20:1 22:7 37:1 39:5 55:4 57:4 68:6 71:3 83:2 100:1 110:2 124:1 130:1 132:8 134:1 146:4 148:3 149:1 154:1 209:2 248:3 273:4 295:1 304:1 336:1 342:4 406:1 426:2 427:2 502:3 506:1 586:1 601:1 602:1 659:1 666:1 721:1 852:1 867:1 868:1 887:1 898:1 949:1 1029:1 1087:1 1248:1 1350:1 1375:2 1376:1 1377:1 1456:2 1462:3 1495:1 1498:2 1532:1 1533:1 1542:1 1546:1 1571:1 1572:1 1625:1 1665:1 1733:1 1757:1 1763:1 1768:1 1864:6 1865:6 1914:1 1922:2 2005:1 2015:1 2044:1 2090:1 2188:2 2385:1 2546:1 2628:1 2658:1 2745:2 2751:1 2821:1 2824:1 2897:1 2905:1 2995:1 3138:1 3157:1 3189:1 3191:1 3192:2 3194:1 3196:1 3249:1 3348:1 3412:1 3485:1 3769:1 3953:3 4110:1 4630:1 5259:1 5625:1 6401:1 6403:1 6418:1 6448:1 6513:1 6713:1 7541:1 8851:1 10733:2 11032:1 11033:1 11034:1 11035:1 11036:1 11037:1 11038:1 11039:1 11040:1 11041:1 11042:1 11043:1 21600:1 #
0.00095978161945162025238398317839028 2:1 8:8 12:5 14:1 16:1 20:1 22:6 37:3 39:3 47:1 48:1 56:1 57:7 68:1 71:5 77:1 81:1 94:1 100:2 102:1 104:1 110:1 112:1 113:2 123:1 124:3 128:1 129:1 132:3 143:1 148:1 154:1 178:1 209:1 248:5 254:1 273:2 279:1 312:1 342:1 429:1 432:1 445:1 448:2 466:1 472:1 502:1 511:1 547:10 577:1 602:4 671:1 675:1 721:1 729:1 759:1 809:1 834:3 852:2 866:1 1004:1 1010:1 1120:1 1257:1 1319:1 1350:1 1377:3 1395:1 1406:1 1415:1 1431:1 1462:2 1464:1 1495:11 1521:1 1528:2 1541:1 1587:1 1594:1 1629:1 1665:2 1697:1 1717:1 1731:1 1733:3 1835:1 1857:1 1922:1 1949:2 1956:3 1974:1 2043:1 2188:1 2227:1 2329:1 2542:1 2552:1 2632:1 2657:1 2658:1 2751:1 2788:1 2853:2 3007:1 3195:1 3342:1 3345:3 3347:2 3348:1 3395:1 3441:1 3476:1 3500:1 3671:2 3686:1 3951:1 3966:1 4597:1 4771:1 4941:1 5196:1 5766:1 6177:1 6700:1 6977:2 7982:1 8196:1 8434:1 8728:1 8752:1 9351:1 9807:2 10271:1 10788:1 11027:1 11804:1 12816:1 13215:1 14328:1 14755:1 14887:10 14889:1 14890:2 14891:1 14892:1 14893:1 14894:1 14895:1 14898:1 14899:1 14900:1 14901:1 14902:1 14903:1 52114:1 52115:1 52116:1 52117:1 #
0.000547851561450603263825342992277 2:1 8:4 9:1 12:10 19:1 22:7 37:1 39:8 47:1 54:3 55:4 57:3 65:2 68:2 71:12 77:1 100:1 102:1 103:1 110:1 113:5 118:1 124:2 132:3 143:2 146:5 148:2 150:1 154:1 199:2 204:1 209:2 217:1 231:1 248:4 263:2 273:6 304:1 311:1 322:1 327:1 342:3 348:1 440:1 445:1 472:1 492:4 502:2 511:1 559:1 596:1 599:1 648:1 659:1 671:4 673:1 688:1 705:1 728:1 771:1 822:1 838:1 867:1 876:1 940:1 1002:1 1063:2 1065:1 1075:1 1368:1 1394:1 1426:1 1434:1 1462:6 1477:1 1495:5 1498:1 1503:1 1509:4 1514:1 1519:1 1521:1 1535:1 1594:2 1653:1 1700:1 1716:1 1763:2 1779:1 2268:2 2303:1 2441:1 2552:1 2579:1 2747:3 2817:3 2828:1 2925:1 2944:1 2973:2 3006:1 3345:3 3391:1 3426:2 3479:1 3489:1 3686:3 3827:1 3907:1 4032:1 4113:2 4127:4 4174:1 4441:2 4555:1 4693:2 5185:1 5188:2 5190:2 5194:3 5206:1 5321:1 5342:1 5428:1 5758:1 6174:1 6177:1 6559:3 7071:1 8132:1 8726:1 8883:1 8968:1 10212:2 10543:3 11185:1 11191:1 15550:1 15551:1 15552:1 15553:1 15554:3 #
-0.00095978161945162025238398317839028 2:1 6:7 12:4 15:7 16:2 20:3 22:25 24:1 32:1 37:1 39:10 55:3 56:1 57:5 59:1 68:3 71:6 83:1 100:2 103:1 112:3 116:1 123:4 124:3 126:1 132:3 146:9 148:2 154:3 209:4 232:2 248:1 254:1 262:1 263:1 273:1 275:1 276:1 300:1 304:1 305:1 310:1 324:1 341:1 355:1 389:1 394:1 406:2 417:1 448:3 501:1 506:1 559:2 589:1 594:1 602:1 648:1 659:1 838:1 852:6 874:1 1020:2 1377:1 1484:1 1488:3 1495:1 1521:1 1525:3 1545:2 1566:1 1628:1 1722:1 1767:1 1771:1 1861:1 2195:1 2202:1 2216:1 2217:1 2288:1 2376:1 2436:1 2883:1 2904:3 2942:1 3121:1 3348:1 3369:2 3437:1 3807:1 3857:1 3945:1 5530:1 6104:1 6286:1 6598:1 7464:1 7673:1 9016:1 9284:1 9529:1 10318:1 10362:1 10380:1 10542:1 10572:1 11652:1 12767:1 15430:1 16161:1 16221:1 17036:1 18246:1 18887:1 20311:1 23827:2 25110:1 25111:1 25472:1 25597:1 27723:1 28119:1 31764:1 32248:1 32614:1 34203:1 35286:1 37245:1 37344:1 40973:1 40989:1 46549:1 46735:1 47313:1 51186:1 55581:1 57105:1 57143:1 57513:2 57812:1 59643:2 63263:1 68016:1 68794:1 69250:1 74188:1 74189:1 74190:1 74502:1 74503:1 74511:1 74512:1 74513:1 74514:1 74516:1 77750:1 84070:1 84071:1 84072:1 84073:1 84074:1 84075:1 84076:1 84077:4 84078:1 84079:1 84080:1 84081:1 84082:1 84083:1 84084:1 84085:1 84086:1 84087:1 84088:1 84089:1 84090:1 84091:1 84092:1 84093:1 84094:1 84095:1 #
0.00095978161945162025238398317839028 2:1 8:2 12:4 13:1 14:1 15:1 16:1 22:17 37:3 39:13 49:2 55:5 56:1 57:1 68:2 71:13 83:1 102:4 103:1 110:1 113:1 123:2 124:6 126:1 128:1 132:6 146:12 150:1 154:2 209:2 215:1 217:2 220:1 230:2 231:3 248:2 249:1 273:4 293:1 305:1 308:1 327:1 332:1 431:1 448:1 469:1 486:3 502:3 559:1 560:2 565:1 566:5 602:4 659:1 669:3 675:1 697:3 703:1 759:2 774:1 836:2 852:9 865:1 870:1 871:1 875:1 887:1 892:2 960:1 1002:1 1006:1 1016:2 1025:2 1360:1 1394:2 1434:1 1462:1 1485:2 1495:2 1514:1 1517:1 1568:1 1594:1 1600:1 1625:1 1651:5 1704:1 1716:3 1733:1 1738:6 1805:1 1813:1 1864:1 1865:2 1870:2 1895:1 1902:1 1946:2 2018:1 2064:1 2124:1 2190:1 2193:1 2253:1 2278:4 2308:4 2404:1 2536:1 2557:1 2689:1 2751:2 2752:1 2821:2 2905:1 2936:4 2939:1 2955:1 2995:2 3220:4 3227:1 3256:1 3269:1 3273:1 3281:5 3329:1 3344:1 3345:4 3365:4 3391:1 3420:3 3481:2 3526:1 3527:1 3670:1 3684:1 3930:1 3945:2 4046:1 4124:1 4471:1 4679:1 4693:1 4887:1 5094:1 5187:1 5250:1 5379:1 5394:1 6177:1 6403:1 6567:1 6650:1 6676:2 6933:1 7071:1 7889:1 8434:1 8728:1 9005:1 9487:1 10759:1 10976:1 11369:1 12413:1 12414:1 12890:1 15193:1 19076:3 20951:2 21416:1 21758:1 24058:1 24062:2 28240:1 28501:1 30728:1 37891:1 38402:1 38403:3 38404:1 38405:1 38406:1 38407:3 38408:1 38409:1 38410:1 #
-0.00095978161945162025238398317839028 2:1 22:4 39:1 57:1 61:1 304:1 306:1 525:1 669:1 869:1 1626:1 2248:1 47201:1 55004:1 60228:1 60921:1 61919:1 62422:1 62423:1 #
0.00095978161945162025238398317839028 2:1 6:9 8:2 12:7 14:1 22:6 24:2 32:2 37:4 39:5 55:1 57:1 59:1 68:7 71:3 93:1 96:1 100:1 112:1 113:1 116:1 124:3 130:2 134:1 141:1 145:2 146:3 148:6 150:1 185:1 204:2 207:1 215:1 232:1 275:1 285:3 296:2 321:2 336:1 354:1 448:1 472:1 502:2 595:1 602:1 609:1 675:1 738:1 820:1 977:1 1257:1 1293:1 1298:1 1370:2 1377:1 1395:1 1401:2 1402:2 1456:2 1462:1 1488:1 1495:6 1503:1 1540:1 1545:1 1554:1 1633:1 1728:2 1733:1 1853:1 1863:2 1864:2 1865:2 1922:2 2542:1 2552:1 2599:2 2603:1 2837:1 2839:1 2842:1 3214:1 3463:1 3686:1 3782:2 4213:1 4626:1 5124:1 5197:2 5827:1 5944:1 6102:1 6993:1 6998:1 7180:2 9689:1 28414:2 36992:1 36993:1 #
-0.00095978161945162025238398317839028 2:1 6:1 22:1 24:1 37:1 39:1 68:1 71:1 77:2 79:1 100:1 129:1 144:1 148:2 154:1 263:1 312:1 448:1 466:1 530:1 552:1 882:2 972:1 1287:1 1353:1 1625:1 2056:1 2386:1 2565:1 2603:2 3121:1 3212:1 3293:1 3344:2 3930:1 4057:1 4423:1 4599:1 5315:1 5618:1 12140:1 24566:1 27434:1 33691:1 34680:1 37348:1 48345:1 55437:1 56660:1 57227:1 57228:1 57230:1 57932:1 58988:1 66834:1 80122:1 82469:1 88910:1 96764:1 96765:1 96766:1 96767:1 96768:1 96769:1 96770:1 96771:1 96772:1 #
-0.00095978161945162025238398317839028 2:1 8:3 15:1 16:1 19:1 20:1 22:2 25:1 30:2 39:1 47:1 55:1 57:4 68:1 71:7 78:1 81:2 93:1 102:1 118:2 123:1 132:1 144:2 148:3 248:1 273:2 275:1 280:1 300:1 305:1 345:1 368:1 388:1 495:1 577:1 601:1 602:1 609:1 852:1 861:2 875:1 887:1 945:1 1314:1 1324:1 1377:1 1394:2 1462:2 1485:1 1495:1 1498:2 1571:3 1594:1 1600:1 1705:1 1743:1 1842:1 1864:1 1865:1 1894:1 1922:1 1938:1 2504:1 2537:1 2683:1 2700:1 3127:1 3138:1 3195:1 3241:2 3460:1 3479:1 3686:1 4139:1 4669:1 5080:1 5245:1 5394:1 5400:2 5439:1 5546:1 6643:1 6832:1 9698:1 11918:1 13572:1 20100:1 22897:1 53373:1 56378:1 61677:1 77088:1 #
-0.00095978161945162025238398317839028 2:1 6:3 8:2 13:1 15:4 16:2 18:1 19:4 20:4 22:4 24:1 30:1 33:1 39:4 44:1 47:2 57:1 68:1 71:4 83:5 112:1 123:3 124:1 143:3 144:1 148:3 199:1 209:1 231:6 248:2 263:1 278:1 280:1 295:2 305:1 308:1 591:1 602:8 648:3 841:1 945:1 950:2 993:5 1019:1 1025:1 1069:2 1074:1 1079:1 1377:1 1431:1 1495:1 1530:1 1562:1 1595:1 1616:1 1624:2 1627:2 1628:1 1760:2 1763:1 1765:1 1767:1 1768:4 1859:1 1863:1 1865:2 1875:1 1915:3 2170:1 2216:1 2329:1 2487:1 2631:1 2652:1 2835:1 2931:2 3256:2 3451:1 3479:1 3573:1 3676:1 3700:2 3785:1 3869:3 4038:1 4067:1 4174:1 4400:1 4418:1 4433:1 4534:2 4630:1 4634:1 4660:1 5189:1 5259:1 5527:1 5773:1 5786:1 5853:1 6030:1 7612:1 7661:1 8608:3 8655:1 8657:1 8658:1 8669:1 8928:2 9111:1 9703:1 9920:1 10107:4 11633:1 12834:5 13967:1 14414:1 14832:1 16629:2 20554:1 22599:1 23380:1 24622:5 24788:1 28494:1 28710:1 29911:1 36740:1 44751:1 58461:2 58833:1 60033:2 60034:2 60038:3 60039:1 60040:1 64505:2 64508:1 80939:2 80940:1 80941:1 80942:2 80943:1 80944:2 80945:2 80946:1 80947:1 #
-0.00095978161945162025238398317839028 2:1 12:1 2853:1 4111:1 4328:1 5512:1 7384:1 8488:1 13238:1 23906:1 38920:1 39551:1 40994:1 44112:1 47268:1 54796:1 55307:1 56104:1 57831:1 59959:1 61503:1 65094:1 70995:1 71005:1 74955:1 76927:1 81947:1 84358:1 86143:1 87182:1 90862:1 90863:1 90864:1 90865:1 90866:1 90867:1 90868:1 90869:1 #
0.0002841748130754733706743175858378 2:1 6:2 8:4 10:1 12:8 13:2 15:6 16:2 37:1 39:4 55:7 57:3 59:1 61:2 67:1 68:1 71:7 77:3 80:1 93:3 100:3 112:2 113:12 123:2 132:2 143:1 146:5 148:4 150:3 154:1 180:1 185:1 196:1 209:4 220:1 248:4 263:7 267:1 272:4 273:2 275:2 280:1 284:1 304:2 339:1 347:2 368:1 394:1 397:2 412:1 417:3 492:1 502:3 517:1 521:1 569:1 573:1 611:2 648:1 659:1 671:1 697:2 701:1 841:1 852:1 860:1 867:1 876:1 1408:1 1422:10 1462:3 1481:1 1487:1 1488:1 1493:1 1495:5 1510:3 1521:2 1532:1 1534:1 1575:1 1594:1 1600:1 1722:1 1760:1 1769:1 1864:2 1865:1 1871:1 1894:1 1904:1 1915:1 1919:1 1948:1 1953:1 2227:1 2253:1 2329:1 2336:1 2426:2 2436:1 2481:1 2547:1 2552:1 2559:1 2582:1 2645:1 2828:1 2897:1 2940:1 3007:2 3196:1 3278:1 3427:1 3483:13 3628:2 3730:1 4524:1 4895:1 5069:1 5196:1 5197:2 5302:1 6472:1 7636:1 8003:1 8335:1 8973:1 9221:1 9238:1 10358:1 12462:1 14351:1 15168:1 17244:1 19378:1 19905:1 24043:1 30361:1 33488:1 34906:1 39848:1 49629:1 49630:1 49631:1 49632:1 49633:1 49634:1 49635:1 49636:1 49637:1 49638:1 49639:1 49640:1 49641:1 49642:1 49643:1 49644:1 #
0.00095978161945162025238398317839028 2:1 3:1 8:7 12:3 19:3 20:1 22:6 37:1 39:5 55:4 57:3 68:2 71:3 83:2 100:1 110:3 124:2 130:1 132:8 134:1 146:3 148:3 149:1 209:1 248:4 273:4 280:1 342:3 448:1 502:3 506:1 586:1 601:1 602:1 659:1 721:1 852:1 867:1 868:1 887:1 898:1 1087:1 1350:1 1376:1 1377:1 1456:2 1462:2 1470:1 1495:1 1498:2 1532:1 1533:1 1542:1 1545:1 1546:1 1557:1 1571:1 1572:1 1645:1 1733:1 1768:1 1864:6 1865:6 1922:2 2005:1 2044:1 2231:2 2385:1 2556:1 2745:2 2751:1 2821:1 2824:1 2835:1 2897:1 2905:1 3157:1 3189:1 3191:1 3192:2 3194:1 3196:1 3348:1 3412:1 3485:1 3769:1 4065:1 4630:1 4826:1 4972:1 5259:1 5625:1 5630:1 6401:1 6418:1 6419:1 6448:1 6513:1 7541:1 8851:1 10733:2 11032:1 11033:1 11034:1 11035:1 11036:1 11037:1 11038:1 11039:1 11040:1 11041:1 11042:1 11043:1 26234:1 26549:1 #
-0.00095978161945162025238398317839028 2:1 14:1 22:1 37:3 39:3 57:1 68:1 71:1 124:1 134:1 146:1 154:1 209:2 248:1 263:1 269:1 275:1 368:1 423:1 448:1 539:1 552:1 559:1 609:1 673:1 879:1 1287:1 1495:1 1904:1 2291:2 2406:2 2676:1 2735:1 3138:1 3590:1 5805:1 7627:1 13244:1 14841:1 17398:1 18108:1 21519:1 40107:1 54990:1 56556:1 59493:1 #
-0.00095978161945162025238398317839028 2:1 14:1 22:1 37:1 39:1 44:2 68:1 71:1 83:1 103:1 112:2 113:1 118:1 143:1 144:1 145:1 148:3 199:1 254:1 263:1 272:1 287:1 324:1 549:1 567:1 568:1 659:1 705:1 901:1 977:1 1006:1 1495:3 1498:1 1545:1 1594:1 1625:1 2398:1 3621:1 4245:2 5815:1 7014:1 7480:1 7560:1 10144:1 11762:1 16846:1 17272:1 17489:1 21212:1 22161:1 24339:1 40675:2 53061:1 54581:1 54990:1 56956:1 64726:1 64727:1 #
0.00095978161945162025238398317839028 2:1 4:1 6:1 12:1 20:1 22:1 29:1 57:1 71:1 113:1 148:1 263:1 275:1 308:1 342:2 461:1 472:1 648:1 670:1 1502:1 1848:1 1863:1 1864:1 1865:1 2697:1 5150:2 5835:1 5836:1 #
0.00049303815415351059936455158094759 2:1 4:2 6:1 8:1 20:1 22:1 39:1 42:1 68:1 96:1 100:1 248:1 392:1 571:1 602:1 667:1 1495:2 5259:1 7856:2 8793:2 26501:1 #
-0.00095978161945162025238398317839028 2:1 6:3 8:3 13:1 15:4 16:2 19:2 20:4 22:3 24:1 30:1 33:1 39:3 44:1 47:2 57:1 68:1 71:4 77:1 83:2 89:1 102:1 103:1 123:2 124:1 143:3 144:1 148:4 199:1 231:8 248:3 263:1 278:1 305:1 324:1 519:2 591:1 602:6 648:2 841:1 950:2 993:3 1019:1 1066:1 1069:2 1074:1 1287:1 1293:1 1377:1 1431:1 1473:2 1495:1 1530:1 1595:1 1616:1 1624:1 1628:1 1760:2 1763:1 1767:1 1768:2 1875:1 1915:3 1922:1 2170:1 2216:1 2487:1 2652:1 2835:1 2931:2 3117:1 3256:1 3479:1 3573:1 3676:2 3700:2 3869:2 4038:1 4174:1 4400:1 4418:1 4433:1 4534:3 4630:1 4660:1 5259:1 5527:1 5773:1 5786:1 6030:1 7661:1 7901:1 8608:3 8655:2 8669:1 8928:1 9111:1 9920:1 10107:2 12834:3 13593:1 13819:1 13967:1 22599:1 23380:1 24622:3 24788:1 36360:1 58461:4 60033:1 60034:2 60038:3 60039:1 60040:1 60445:1 100111:2 100112:2 100113:1 100114:1 100115:1 100116:1 100117:2 100118:1 #
0.00095978161945162025238398317839028 2:1 12:2 14:1 39:1 54:1 57:1 68:3 100:1 110:1 123:1 124:2 146:1 248:1 432:1 601:1 852:2 1003:1 1052:1 1257:1 1310:2 1376:1 1377:1 1400:1 1462:1 1496:1 1498:1 1731:1 1757:1 1992:1 2549:1 2556:1 2562:1 2955:2 2971:2 3348:1 3410:1 3676:1 4107:1 4115:1 6848:1 7124:1 7126:1 7128:1 7129:1 7130:2 7131:1 #
-0.00028207621230339830539074474913264 2:1 8:4 12:7 14:1 15:1 20:1 22:7 33:1 37:4 38:1 55:2 68:1 71:4 77:2 83:2 88:1 103:1 113:1 118:1 123:1 143:1 146:1 148:1 154:2 209:4 231:1 248:2 273:3 275:1 305:1 342:1 398:1 412:1 602:1 631:1 643:1 675:1 831:1 839:2 852:2 892:1 1334:1 1462:3 1493:1 1594:1 1630:1 1705:1 1815:1 1818:1 1864:1 1865:3 1951:1 2520:1 2542:2 2806:1 2835:5 3195:1 3345:1 3590:5 3684:2 4642:1 5193:1 5409:1 5410:1 5614:1 7052:1 8888:1 9935:1 10581:4 14602:1 15095:1 15868:1 20419:1 22402:2 27150:1 38761:1 41200:1 52605:1 74530:1 74531:1 74532:1 74533:3 74534:1 74535:1 #
0.00095978161945162025238398317839028 2:1 6:1 10:1 12:8 13:2 14:3 15:2 18:1 19:1 20:2 22:17 25:1 29:1 30:2 32:1 33:1 37:2 39:7 57:2 61:1 71:8 77:1 78:4 93:1 100:1 112:4 113:1 123:1 124:1 130:1 146:1 148:1 150:1 209:1 230:1 263:2 273:1 304:4 397:1 412:2 485:1 502:2 577:1 602:2 654:1 675:2 684:1 697:1 727:1 729:1 731:1 768:1 852:1 865:1 871:1 874:1 875:1 886:1 943:1 1010:1 1087:2 1377:1 1383:1 1406:1 1408:1 1462:1 1474:1 1488:1 1490:1 1521:1 1594:2 1728:1 1733:1 1739:1 1767:1 1777:1 1863:1 1864:6 1865:6 1904:1 1957:2 2018:1 2165:1 2172:6 2312:2 2406:1 2409:1 2457:1 2554:1 2559:1 2598:1 2606:2 2657:1 2683:2 3127:1 3159:1 3241:1 3401:1 3402:1 3683:1 3686:2 3763:1 3989:1 4599:1 4621:2 5018:2 5400:1 5881:1 5976:1 6971:1 7256:2 7407:1 8336:1 8443:1 9621:1 11093:1 11331:1 13569:1 14370:1 15442:1 18945:1 19448:2 20386:1 20689:1 20690:1 24952:4 34902:1 37650:2 37651:2 37652:2 37653:1 37654:1 37655:1 37657:2 38916:1 #
0.00095978161945162025238398317839028 2:1 4:2 12:5 15:2 16:1 22:3 34:2 37:1 38:1 39:6 57:1 61:1 68:2 71:4 77:1 81:1 96:1 100:1 112:2 113:1 116:1 118:1 132:1 146:6 148:1 150:1 248:1 275:4 280:1 287:1 304:1 324:1 342:1 417:1 440:1 448:1 521:3 554:1 559:1 596:1 675:3 679:3 762:1 836:2 852:2 860:1 874:1 875:1 1431:1 1462:1 1490:1 1493:2 1495:4 1496:1 1514:1 1534:1 1600:1 1705:4 1726:2 1853:1 1904:1 1948:2 1974:1 2420:1 2466:1 2504:1 2546:1 2812:2 2954:1 3169:2 3345:1 3369:1 3385:2 3638:1 3669:2 4118:3 4556:1 5124:1 5136:1 5177:1 5187:1 5428:1 5713:1 9287:1 10201:1 17703:1 19051:1 30794:1 #
0.00095978161945162025238398317839028 2:1 8:5 9:1 12:20 13:5 14:2 15:18 16:1 20:12 22:41 25:1 27:1 33:2 37:7 39:22 56:1 57:7 59:1 61:1 68:8 71:20 77:8 83:3 88:1 94:1 100:3 102:1 110:1 112:1 113:1 118:2 123:8 124:10 126:2 132:2 134:1 146:16 148:21 150:1 154:8 167:1 177:1 185:5 186:1 198:1 199:2 206:1 209:4 217:1 220:1 230:1 231:4 248:3 260:1 263:2 271:3 272:2 273:1 275:4 280:2 285:1 287:1 295:1 304:3 305:2 322:1 325:1 328:1 332:1 341:1 347:1 348:1 394:1 397:1 398:1 406:3 412:6 414:1 416:3 423:1 432:1 440:4 441:1 442:1 448:2 469:1 472:4 502:3 514:1 521:6 525:1 528:4 549:1 554:1 560:2 580:1 589:1 601:3 602:15 603:2 659:1 669:1 675:3 680:1 697:2 708:1 709:1 711:1 727:1 728:1 729:2 771:1 852:3 874:1 875:3 876:2 934:1 1010:1 1038:1 1065:1 1086:1 1173:1 1203:1 1276:1 1287:1 1300:1 1316:1 1353:2 1359:1 1360:1 1377:5 1394:2 1399:2 1406:3 1434:1 1462:1 1495:11 1498:1 1503:1 1514:1 1521:2 1534:1 1571:1 1579:1 1582:1 1594:1 1600:1 1609:1 1610:1 1616:1 1618:1 1620:2 1625:2 1658:7 1665:1 1707:1 1722:3 1731:2 1733:4 1738:1 1748:1 1758:1 1763:1 1764:2 1767:1 1815:1 1835:1 1840:1 1842:1 1845:1 1857:3 1858:1 1864:3 1865:3 1886:1 1892:1 1904:1 1921:1 1948:2 1956:2 1959:4 1975:3 1980:1 2018:1 2019:1 2041:7 2076:1 2124:3 2156:1 2163:1 2182:1 2193:1 2202:1 2206:1 2207:1 2236:1 2270:1 2279:1 2287:5 2291:1 2308:1 2329:1 2351:1 2356:1 2515:2 2528:4 2542:1 2543:1 2552:1 2576:3 2591:2 2597:1 2626:1 2650:1 2658:2 2716:1 2735:1 2751:1 2817:1 2821:1 2853:1 2865:1 2883:1 2936:1 2986:2 2987:1 3121:6 3125:1 3169:1 3172:1 3195:2 3267:2 3269:1 3271:2 3304:1 3344:1 3345:2 3348:1 3430:1 3439:1 3451:1 3470:1 3537:3 3578:2 3590:1 3595:1 3660:1 3682:1 3684:1 3800:1 3906:1 4094:2 4095:1 4142:3 4178:1 4189:4 4215:1 4222:2 4422:1 4472:1 4522:1 4530:1 4601:3 4647:3 4675:3 4684:1 4790:1 5071:2 5130:2 5204:1 5317:2 5390:4 5394:1 5735:1 5764:2 5785:1 5800:1 5878:1 6025:1 6036:1 6264:1 6352:1 6354:1 6403:1 6491:1 6572:1 6650:1 6981:1 7008:1 7180:2 7343:2 7511:1 7560:1 7561:1 7601:1 7610:1 8120:1 8390:1 8414:1 8585:1 8697:1 9002:1 9005:1 9341:1 9344:1 9499:1 9601:3 9644:1 9725:1 9863:1 10255:1 10755:1 10788:1 10881:1 11228:1 11720:3 11741:1 11762:1 11958:1 12378:1 13296:1 13454:3 13455:2 13456:1 13457:1 13458:2 13459:1 13460:1 13461:1 13462:14 13463:1 13464:1 13465:5 13466:1 13467:1 13468:1 13469:1 13470:1 13471:2 13472:1 13473:1 13474:1 13475:1 13476:1 13477:1 13478:1 13479:1 13480:1 13481:2 13482:1 13483:1 13484:1 13485:1 13486:1 13487:1 13488:1 13489:1 13490:1 13491:1 13492:1 13493:3 13494:1 13495:1 13496:6 13497:1 13498:2 13499:1 13500:1 13501:1 13502:1 13503:3 13504:3 13505:3 13506:3 13507:1 13508:1 13509:2 13510:1 13511:1 13512:2 13513:1 13514:1 13515:1 13516:1 13517:1 13518:1 13519:1 13520:1 13521:1 13522:1 13523:1 13524:1 13525:1 13526:1 13527:1 13528:1 13529:1 13530:1 13531:1 13532:1 13533:1 13534:1 13535:1 #
-0.00095978161945162025238398317839028 2:1 6:1 8:1 12:6 14:1 15:2 16:1 22:2 37:2 39:2 44:1 50:1 57:3 71:3 77:1 100:4 102:1 148:2 150:1 154:1 215:1 248:2 272:1 273:1 275:2 341:1 349:1 459:2 472:1 508:1 549:3 623:1 710:1 849:1 852:1 860:1 886:1 1038:1 1063:1 1257:1 1376:1 1495:3 1560:1 1716:1 1899:1 1921:1 2193:1 2201:1 2301:2 2385:1 2552:1 3333:1 3348:1 3989:1 4112:2 6154:1 6520:1 7681:1 9215:1 10735:1 11962:1 21722:1 26345:1 29128:1 45161:1 57172:1 57173:1 57174:1 57175:1 #
0.00095978161945162025238398317839028 2:1 6:2 8:3 12:3 13:1 22:21 29:1 30:1 37:2 39:1 47:2 55:1 57:1 68:1 71:7 83:4 88:1 100:3 103:3 104:1 110:2 112:1 113:1 124:1 126:1 134:1 143:1 144:2 146:2 154:1 167:1 170:1 209:1 248:1 275:2 280:1 295:1 392:1 417:2 461:12 472:1 502:1 547:1 648:1 711:1 977:1 1002:2 1281:1 1287:2 1462:1 1488:2 1491:1 1492:1 1493:1 1495:3 1496:1 1545:1 1560:1 1566:2 1594:1 1654:1 1714:1 1731:1 1782:1 1894:1 2104:1 2156:2 2200:2 2227:1 2606:1 2816:2 2972:1 3125:3 3319:1 3682:1 3996:2 4216:2 5409:1 5574:4 5987:1 6492:2 6838:2 6928:2 6936:1 6940:1 6941:1 9200:1 9521:1 10992:1 12364:1 14896:1 16896:1 18052:1 19074:1 20129:1 27955:1 #
0.00095978161945162025238398317839028 2:1 8:1 15:2 20:1 22:11 33:1 37:2 39:5 51:4 52:6 55:1 57:1 68:9 71:4 77:1 80:1 93:1 100:1 104:1 105:1 123:1 124:1 134:1 143:1 146:3 148:2 203:1 208:1 209:1 221:3 231:1 232:1 247:2 248:2 254:1 291:1 336:2 359:1 412:1 440:1 448:1 451:1 461:1 499:1 560:2 580:1 588:1 604:1 648:1 831:1 882:2 892:2 899:1 1028:1 1125:1 1276:1 1283:1 1304:2 1323:1 1353:1 1523:1 1532:2 1560:1 1587:1 1625:1 1633:1 1642:1 1773:1 1947:1 1971:1 2037:1 2088:1 2090:2 2105:1 2152:1 2190:1 2244:1 2704:2 2710:1 2811:1 2883:1 2895:1 3122:1 3445:1 3521:1 3526:1 3549:4 3892:1 4057:1 4189:1 4574:1 7534:1 7917:1 8124:1 8864:1 8901:1 12821:1 13895:1 17264:1 21605:2 24199:1 34619:5 34620:1 34621:1 #
0.00095978161945162025238398317839028 2:1 12:3 14:1 15:1 22:2 39:5 57:1 71:1 88:1 93:2 100:3 110:3 112:1 123:3 124:2 132:1 146:2 148:1 209:1 247:2 248:4 273:1 275:3 287:1 304:1 487:1 502:1 602:1 604:1 659:1 671:1 1393:1 1462:1 1485:1 1495:2 1496:1 1534:1 1717:1 1731:1 1760:1 1767:1 1768:1 1790:2 1894:1 1938:1 1984:1 2295:1 2473:1 2581:1 2835:1 2853:1 3025:1 3139:1 3311:2 3468:1 3904:1 3933:1 4846:1 5182:1 5843:1 6195:1 7066:1 8359:1 9310:1 11505:2 13138:1 13529:1 14072:3 14073:2 14074:1 14075:1 14076:2 14077:1 14078:1 14079:2 14080:1 14081:1 14082:1 14083:1 14084:1 14085:1 14086:1 14087:1 14088:1 14089:1 14090:1 #
0.00064977293964631590086900025937666 2:1 8:6 19:1 20:2 22:11 29:1 30:3 32:3 37:3 39:15 44:1 45:1 47:1 55:1 57:2 59:1 68:7 71:8 79:1 83:1 112:4 113:1 116:1 123:1 124:9 130:1 132:1 140:1 146:2 148:7 150:2 154:2 215:1 243:3 247:4 254:1 260:1 263:1 267:1 273:3 275:11 278:1 285:5 295:2 296:4 300:4 304:3 338:2 339:1 342:1 354:1 357:1 364:1 383:1 397:1 406:1 438:1 448:1 519:3 521:1 559:1 568:1 641:1 666:2 683:1 772:1 788:1 852:3 882:1 892:2 1066:1 1273:1 1418:2 1434:1 1456:1 1465:1 1509:1 1512:1 1630:1 1649:1 1655:1 1726:1 1864:1 1919:1 1948:1 1953:1 1974:3 2076:2 2182:1 2247:2 2441:1 2458:1 2905:1 2923:2 3150:4 3170:1 3221:1 3499:1 3513:1 3577:3 3727:1 3891:2 3945:1 4141:2 4153:1 4174:2 4233:2 4654:2 4905:1 5220:2 5330:2 5439:1 5758:1 6771:2 6938:1 7445:1 7519:1 7588:1 8810:1 9370:1 9989:1 10593:2 12332:1 13947:1 14356:1 14753:1 15486:3 16368:1 19280:1 20531:2 22854:1 23750:1 27868:1 41537:1 #
-0.00095978161945162025238398317839028 2:1 8:4 12:2 15:4 20:3 22:28 30:1 37:26 38:2 39:19 47:1 48:1 51:1 52:9 53:2 55:4 57:4 61:1 68:7 71:16 77:5 83:1 93:2 94:3 96:1 100:1 105:1 112:1 113:3 116:1 119:10 120:5 123:9 124:7 129:1 130:2 132:1 134:1 141:1 144:1 146:29 148:8 150:4 154:5 157:1 170:1 203:5 204:1 209:3 212:1 217:2 220:3 223:1 231:3 248:9 252:1 254:6 260:1 263:2 267:3 271:4 272:2 280:1 285:1 298:1 308:2 309:1 322:1 330:1 332:1 336:11 337:1 341:2 342:6 345:1 347:1 349:1 356:1 363:1 364:1 389:1 394:2 406:1 412:2 428:1 429:1 459:1 474:1 477:1 478:4 502:1 514:1 516:1 517:2 530:2 538:3 557:5 570:1 576:3 588:2 589:2 601:1 602:1 603:3 609:1 648:2 661:2 665:1 671:1 684:2 717:1 718:1 721:1 723:1 724:1 736:1 765:2 769:2 770:1 775:2 785:4 786:1 838:1 854:1 861:2 867:3 881:2 882:1 930:1 976:1 1009:1 1065:1 1112:2 1136:2 1251:3 1278:1 1298:1 1324:1 1356:4 1359:1 1360:6 1376:1 1402:1 1456:2 1461:1 1462:1 1486:1 1495:1 1514:1 1519:1 1560:1 1588:1 1602:2 1604:1 1612:1 1615:1 1625:1 1704:1 1712:1 1748:1 1768:2 1836:1 1838:1 1893:1 1934:1 1948:1 2001:1 2010:1 2018:1 2046:2 2052:1 2078:1 2096:1 2105:4 2183:1 2202:1 2288:1 2291:1 2351:1 2431:1 2510:2 2545:2 2558:1 2572:2 2579:1 2650:1 2672:1 2695:3 2697:1 2711:2 2723:1 2780:1 2807:1 2836:1 2853:1 2886:1 2887:1 2892:1 2893:1 2938:1 2950:1 2960:1 3036:2 3304:1 3345:1 3568:1 3627:1 3724:1 3727:1 3728:1 3824:1 3859:1 3892:10 3895:1 4048:1 4059:1 4067:2 4143:1 4247:2 4550:1 4604:1 4630:1 4782:1 5179:1 5311:1 5439:1 5580:1 5606:1 5677:1 6078:1 6085:1 6104:1 6478:1 6520:1 6978:1 7035:1 7061:1 7192:1 7618:1 7784:1 8026:1 8034:1 8307:1 8746:1 8800:1 9173:1 9292:2 9385:2 9485:1 9676:1 9775:1 10183:2 10185:1 11241:1 11358:1 11367:1 11921:1 12091:1 12243:1 12475:1 13392:1 13810:1 16975:1 17137:1 17533:1 17658:2 18230:1 19546:1 19547:1 20504:1 20531:14 20843:1 22245:1 24179:1 26404:1 27365:1 32046:1 46766:1 47030:1 49746:6 56572:1 57648:1 65891:1 74779:1 87059:2 87060:1 87061:4 87062:1 87063:1 87064:2 87065:1 87066:1 87067:1 #
0.00095978161945162025238398317839028 2:1 3:1 6:4 8:1 18:1 19:1 20:1 22:21 25:1 29:1 32:2 37:10 39:8 48:1 49:1 55:1 56:1 57:2 68:5 71:7 77:1 78:1 79:1 83:2 100:2 103:1 112:2 113:1 123:4 124:2 143:1 144:1 145:1 146:17 148:8 150:2 154:2 204:2 206:1 248:1 254:1 272:2 275:2 285:1 287:2 296:1 299:1 304:1 322:1 327:1 339:2 341:1 342:1 348:3 349:1 394:4 395:1 432:1 459:3 461:1 472:2 477:1 488:1 514:1 519:2 547:1 568:1 589:1 602:1 609:2 624:1 661:1 671:1 682:1 713:1 726:2 774:1 852:2 861:2 862:2 867:1 877:1 882:1 902:1 945:1 953:1 989:1 1313:2 1434:1 1462:3 1474:1 1488:2 1495:3 1519:1 1525:4 1545:1 1588:1 1595:1 1628:3 1678:2 1722:1 1730:1 1760:2 1767:1 1805:2 1821:1 1995:1 2044:1 2111:1 2165:1 2253:1 2278:2 2308:1 2316:1 2326:1 2329:1 2345:1 2367:1 2378:1 2542:2 2665:1 2963:1 3036:6 3167:1 3223:1 3224:1 3267:3 3455:1 3494:1 4113:1 4245:1 4445:1 4599:1 4621:1 4622:1 4705:1 4812:1 5185:1 5365:2 5421:1 5455:1 5702:1 5817:1 5820:1 7034:1 7039:3 7607:2 7629:3 8336:1 8585:1 8655:1 8725:1 8991:1 9247:1 9444:1 9650:1 9689:1 9863:2 10030:1 10122:1 10135:1 10184:1 10201:1 10656:1 11018:1 11191:1 12683:1 12946:1 13296:1 14334:1 14426:1 15773:3 15774:1 15775:1 15776:1 15777:1 15778:1 15779:1 15780:2 15781:1 15782:1 15783:1 15784:2 15785:1 15786:1 15787:1 15788:1 15789:3 15790:1 15791:1 15792:6 15793:1 15794:1 15795:1 15796:1 15797:2 15798:1 15799:1 15800:1 15801:1 15802:1 15803:1 15804:1 15805:1 15806:1 15807:1 15808:1 15809:1 15810:1 15811:1 41342:1 42207:1 50585:1 50586:1 #
0.00095978161945162025238398317839028 2:1 3:1 8:1 12:6 15:7 18:1 19:1 20:2 22:19 25:1 29:1 32:1 33:1 37:2 38:2 39:10 56:1 57:4 59:1 63:1 64:1 68:2 71:7 77:4 78:1 83:2 93:1 103:2 112:5 118:2 121:1 124:1 128:1 132:2 134:2 144:1 146:2 148:4 150:1 154:1 199:2 203:1 204:1 209:2 230:1 231:1 248:1 262:1 272:1 305:2 311:1 337:1 342:1 347:1 373:1 397:1 448:1 461:1 472:1 502:2 511:1 521:1 554:2 565:1 601:1 602:4 611:1 675:1 697:1 705:3 717:1 759:1 765:1 771:1 774:1 778:1 840:1 878:1 976:2 979:1 1051:1 1087:4 1328:1 1339:1 1377:1 1408:1 1474:1 1476:1 1498:1 1521:1 1523:1 1534:1 1602:1 1628:1 1714:2 1730:1 1736:1 1815:1 1896:1 1927:1 1935:1 1936:1 2008:1 2046:2 2047:1 2064:1 2076:5 2113:1 2119:1 2202:1 2217:1 2227:1 2435:1 2437:2 2440:1 2446:1 2499:1 2534:1 2658:1 2776:1 2956:1 3121:1 3189:1 3347:1 3475:1 3951:1 3956:1 4010:1 4019:1 4233:1 4446:1 4500:1 4501:1 4544:2 5644:1 5908:2 5910:1 6196:2 6197:1 6407:1 6442:2 6455:1 7403:1 8781:1 8891:1 9265:1 9686:1 10238:1 10552:1 10692:1 11369:1 11864:1 14909:1 15082:1 17166:1 17591:1 17871:1 18181:1 18878:1 19839:3 22110:1 22334:3 22335:3 22336:1 22337:1 22338:1 22339:1 22340:1 22341:1 22342:1 22343:1 22344:4 22345:1 22346:1 22347:1 22348:1 22349:1 22350:1 22351:1 22352:1 22353:1 22354:1 22355:1 #
-0.00095978161945162025238398317839028 2:1 8:3 15:1 16:1 19:1 20:1 22:3 25:1 39:1 55:1 57:1 71:7 78:1 97:1 102:1 118:1 132:2 143:1 148:1 154:2 248:1 273:2 275:1 280:1 305:1 388:1 495:1 514:1 524:1 525:1 577:1 601:1 609:1 614:2 667:1 697:1 729:1 771:1 852:1 875:1 882:1 887:1 945:1 949:2 1010:1 1054:1 1284:2 1310:1 1314:1 1377:1 1394:1 1462:1 1476:1 1485:1 1498:1 1568:1 1571:1 1578:2 1579:1 1594:1 1600:1 1705:1 1842:1 1864:2 1865:2 1894:1 2103:1 2537:1 2606:1 2683:1 2700:1 2751:1 3127:1 3138:1 3195:1 3460:1 3479:1 4669:1 5080:2 5394:1 5400:1 5439:1 5516:1 6832:1 7689:1 11509:1 14136:1 14891:1 15531:1 16823:1 20100:1 56449:1 #
-0.00095978161945162025238398317839028 2:1 12:1 14:1 22:1 57:1 71:1 96:1 123:1 150:1 154:1 188:1 209:1 217:1 263:1 272:2 275:1 472:1 521:1 573:1 648:1 659:1 838:1 892:1 1408:1 1531:1 1625:1 1780:1 1857:2 1948:1 2406:1 2591:1 3348:1 3568:1 4599:1 8752:1 13972:1 33607:1 56431:1 59829:1 67737:1 67738:1 79326:1 79327:1 #
0.00095978161945162025238398317839028 2:1 22:2 39:2 40:1 52:2 57:1 102:1 112:2 146:1 231:1 304:1 310:1 461:1 768:1 1402:1 1431:1 1437:1 1456:1 1514:1 1625:1 1789:1 1869:1 2056:1 2227:1 3932:2 6898:2 7016:1 15103:1 45723:1 #
0.00095978161945162025238398317839028 2:1 6:1 12:1 14:1 20:1 22:14 37:4 39:9 54:1 55:2 57:2 59:3 68:5 71:2 83:3 100:1 103:2 110:1 113:1 116:2 123:1 130:1 143:3 144:1 146:6 148:2 150:1 154:2 209:1 231:1 249:1 270:1 271:1 273:3 275:5 284:1 285:2 304:2 328:1 336:1 357:1 397:2 415:1 459:1 461:2 488:1 558:1 562:1 599:1 831:1 834:1 949:1 1293:2 1303:1 1315:1 1360:1 1394:1 1462:1 1495:3 1532:1 1545:4 1556:1 1568:1 1594:1 1630:1 1661:1 1680:1 1683:2 1717:1 1815:1 1902:1 1984:1 2032:1 2098:1 2244:1 2287:1 2308:1 2325:1 2406:1 2430:1 2488:1 2542:1 2603:2 2630:1 2821:1 2840:1 2853:2 2871:1 2927:1 2933:1 3127:1 3166:1 3263:2 3505:1 3625:1 3857:1 3904:2 3951:1 4126:2 4180:1 4472:1 5051:1 5193:1 5245:2 5259:1 5412:1 5701:1 5728:1 6511:1 8350:1 8359:1 8460:1 9379:1 10245:1 11918:1 14054:1 17634:1 17636:1 17675:1 28992:1 28993:1 28994:2 28995:1 28996:1 28997:1 28998:1 28999:1 #
0.00038920036903780793561408168912408 2:1 13:1 15:1 20:5 22:11 29:1 37:4 39:14 40:2 44:6 47:2 48:1 49:1 54:1 55:4 57:7 58:2 61:4 68:12 71:11 73:1 77:1 83:4 89:1 100:1 102:2 103:2 104:1 110:3 112:1 116:5 118:1 123:1 125:3 128:3 132:6 143:1 146:13 148:14 150:1 154:1 157:1 164:1 188:1 199:1 209:6 217:1 222:1 231:2 248:1 260:1 267:1 273:3 304:4 308:1 311:2 312:1 324:1 336:3 339:2 348:2 358:1 360:1 394:6 445:2 448:4 459:1 461:1 485:1 491:1 499:1 502:4 511:1 517:1 519:1 534:1 539:1 544:2 549:3 560:2 571:1 604:1 659:1 671:2 675:1 697:3 712:1 721:1 728:1 769:1 836:1 861:3 867:1 882:1 887:2 1009:1 1021:1 1248:1 1283:1 1304:2 1310:1 1311:1 1314:1 1324:2 1339:3 1431:1 1462:1 1532:1 1556:1 1574:10 1590:1 1618:1 1633:1 1660:1 1717:4 1743:1 1747:1 1748:2 1756:1 1772:2 1869:3 1963:5 1969:1 1970:1 2018:2 2056:3 2075:1 2104:1 2149:1 2165:1 2190:1 2329:2 2331:1 2420:5 2481:1 2502:3 2504:1 2524:1 2606:2 2650:1 2653:1 2666:1 2745:2 2757:1 2828:1 2951:1 3168:1 3171:1 3209:1 3259:1 3346:4 3384:1 3718:7 3751:1 3859:1 3890:1 3905:1 3945:1 4067:1 4070:2 4074:1 4166:2 4303:1 4544:1 4549:1 4887:2 5001:1 5046:1 5085:2 5117:1 5131:2 5613:1 5625:1 5841:2 5956:2 5960:1 5961:1 5973:1 6096:4 6165:1 6359:19 6404:1 6461:6 6559:2 6659:1 6673:4 6684:1 6700:1 6798:1 6901:2 7445:1 7674:1 7698:1 7759:1 7786:1 8040:1 8777:1 9446:1 9501:2 9530:1 9594:1 9670:1 10758:1 11265:1 12093:1 12330:1 13130:1 13332:2 13393:1 13792:3 14435:18 15178:4 15492:1 18769:1 19590:1 21588:1 22363:1 22486:1 23843:2 26267:1 28100:1 28215:1 28697:1 29739:2 30144:1 34392:3 36092:1 49570:2 49670:1 49671:2 #
0.00095978161945162025238398317839028 2:1 6:2 8:1 12:1 19:1 22:2 39:4 44:1 55:1 68:2 71:1 100:1 112:1 124:1 146:1 148:1 304:1 342:1 459:1 611:1 697:1 820:1 867:1 1462:2 1498:1 1521:2 1545:1 1549:1 1612:1 1786:1 1968:1 2081:2 2233:1 2451:1 2544:1 2658:1 2788:1 2828:1 2837:1 2980:2 3515:1 3578:1 4201:1 4221:1 4724:1 5189:1 5293:1 5566:1 7008:1 7350:1 7601:1 7936:1 8241:1 11923:1 13575:1 13576:1 13577:1 13578:1 13579:1 13580:1 13581:1 13582:1 #
0.00095978161945162025238398317839028 2:1 8:1 9:1 12:8 13:1 14:1 15:4 20:1 22:24 37:5 39:10 57:4 59:1 61:2 68:5 71:12 77:4 78:1 79:3 83:3 89:3 100:2 112:2 116:1 118:1 123:2 132:1 146:13 148:7 150:1 154:3 199:1 220:1 231:2 242:1 248:2 254:1 263:5 272:1 273:1 280:4 296:1 304:2 305:1 320:1 332:1 338:1 347:2 348:1 366:1 412:3 431:1 448:1 472:4 502:2 527:1 559:1 577:1 601:1 602:3 611:1 621:3 669:1 675:2 721:1 722:3 731:1 759:1 774:1 836:2 840:1 852:1 860:1 875:2 886:1 892:1 945:1 1063:3 1290:1 1322:1 1394:1 1462:3 1485:1 1495:7 1556:1 1620:1 1713:1 1717:1 1738:1 1747:1 1815:1 1864:1 1865:3 1956:1 1974:3 1983:1 2051:1 2091:1 2182:1 2195:1 2373:1 2426:1 2559:1 2586:6 2630:1 2658:1 2708:1 2785:1 2861:1 2883:1 2924:1 3334:1 3345:3 3348:1 3431:1 3460:1 3465:2 3543:1 3601:1 3614:1 3628:3 3671:1 3684:1 3743:1 3792:1 3831:1 3930:1 3949:1 4584:1 4621:1 4626:1 4660:1 5022:1 5217:2 5226:1 5259:1 5438:1 5721:2 5805:1 6065:3 6431:6 6521:2 6650:1 6922:6 7063:1 7071:1 7446:1 7972:2 8414:1 8815:4 9162:1 9351:9 10016:1 10146:1 10873:1 10962:1 11132:1 11190:1 11328:1 11947:1 12268:1 12378:1 13463:1 13862:2 14034:1 14427:1 14830:1 14891:2 15500:1 16322:1 16521:1 16940:1 20098:3 22489:1 24031:1 37128:1 37247:1 37248:1 37249:2 37250:1 37251:1 37252:1 37253:1 #
0.00095978161945162025238398317839028 2:1 6:2 8:1 12:2 20:1 22:4 34:1 37:2 38:2 39:8 52:2 53:5 55:2 57:1 59:1 68:2 71:2 110:1 112:1 113:2 115:1 116:3 123:2 132:1 143:1 146:6 147:1 148:1 154:1 183:1 204:1 209:4 217:1 225:1 263:1 272:1 275:2 311:1 342:2 347:2 412:1 432:1 462:1 502:1 599:1 648:1 671:1 768:1 785:1 820:2 860:1 861:2 876:1 882:2 943:1 1273:1 1340:1 1360:1 1464:1 1485:1 1495:3 1499:1 1502:1 1590:1 1602:1 1624:1 1633:1 1688:1 1699:1 1712:1 1853:1 1869:1 2291:1 2304:1 2509:1 2546:1 2768:1 2833:1 2948:1 2959:1 3164:1 3766:1 3866:1 3892:1 3926:1 4257:1 5010:1 5760:1 6004:1 6245:1 7560:1 8132:1 8316:1 8800:1 9475:1 10050:3 10385:3 10387:1 13773:1 17465:1 20640:1 32222:2 33682:1 40113:1 #
-0.00095978161945162025238398317839028 2:1 22:1 30:1 36:2 37:2 39:3 45:1 57:2 68:1 71:1 146:3 305:1 348:1 448:1 469:1 602:1 729:1 1273:1 1360:1 1571:1 1950:1 2000:1 2670:1 3437:1 4906:1 4941:1 5005:1 5878:1 6357:2 7591:1 8839:1 9686:1 13052:1 16610:1 17733:1 23035:1 28806:1 46698:1 89407:1 89408:1 89409:1 89410:1 #
-0.00095978161945162025238398317839028 2:1 8:6 12:3 14:1 19:1 20:2 22:4 39:8 54:1 55:1 57:6 68:2 71:11 78:1 83:1 102:1 110:3 124:1 132:4 146:2 148:2 154:1 217:2 248:3 273:6 275:2 278:1 280:1 285:2 311:1 329:2 332:1 341:1 406:2 417:1 423:1 502:3 504:1 506:1 521:1 569:1 577:1 596:1 601:3 602:2 641:1 759:4 768:1 836:1 852:1 940:1 949:1 1257:1 1350:2 1377:3 1431:1 1462:3 1464:2 1495:9 1594:3 1608:1 1653:1 1835:2 1921:1 2076:1 2125:1 2398:1 2606:1 2788:1 2853:5 3004:1 3169:1 3170:2 3195:1 3196:1 3223:1 3345:1 3347:1 3414:1 3460:1 3476:3 3512:1 3686:4 4153:2 4797:1 4845:1 5196:2 5394:2 6782:1 6918:2 7105:1 9203:4 10362:2 10661:1 10789:1 11734:1 11943:1 12834:1 13642:1 15213:1 16117:1 22269:1 24622:1 25140:3 41823:1 55984:2 67070:1 80142:1 93107:1 97839:1 97840:2 #
0.00095978161945162025238398317839028 2:1 6:1 8:2 12:1 15:2 16:2 20:1 22:11 25:1 29:1 37:2 39:1 44:1 55:2 57:1 61:2 71:3 81:1 83:1 88:1 89:1 100:1 130:1 132:4 143:2 144:1 146:1 148:4 150:1 154:1 223:1 231:1 243:2 248:3 260:1 263:2 273:3 275:1 277:1 280:1 324:3 342:3 373:1 393:1 438:1 440:1 480:1 483:2 521:1 544:1 581:3 611:1 648:1 697:1 721:1 852:1 1021:1 1039:1 1087:1 1284:1 1339:1 1488:1 1495:1 1498:1 1533:1 1549:1 1592:1 1594:1 1612:1 1626:1 1692:1 1863:1 1865:1 1886:1 1894:2 1904:1 1947:1 2016:1 2173:1 2183:1 2184:1 2236:1 2385:1 2436:1 2481:1 2502:1 2549:1 2565:2 2622:1 2646:1 2653:1 2658:1 2663:1 3036:1 3134:1 3281:1 3303:1 3391:1 3414:1 3660:1 3673:1 3827:1 3928:1 4201:1 4582:1 4660:1 4778:1 4911:1 5252:1 5754:1 6204:1 6294:1 6400:1 6401:1 6402:1 6403:1 6404:1 7469:1 7613:1 11710:1 12832:1 12833:1 12834:1 12835:1 12836:1 12837:1 12838:1 12839:1 12840:1 12841:1 12842:1 #
0.00095978161945162025238398317839028 2:1 8:2 12:6 19:1 20:1 22:9 25:1 29:1 30:1 38:2 39:3 44:1 47:1 48:2 49:1 55:1 57:6 61:1 68:4 71:2 77:2 88:2 95:1 100:1 110:1 113:1 117:1 123:2 124:4 132:1 143:5 144:1 146:4 148:2 149:2 150:1 154:1 199:1 209:1 231:8 248:2 275:3 308:1 312:2 321:2 347:1 440:2 445:1 448:1 452:1 485:3 502:1 517:1 521:2 547:8 580:1 602:2 603:3 648:2 727:7 772:1 822:1 899:1 945:1 1009:1 1016:1 1028:2 1041:2 1079:1 1257:1 1360:1 1395:1 1418:1 1443:1 1444:1 1462:1 1477:1 1495:9 1498:1 1532:1 1556:1 1566:1 1576:1 1601:1 1611:1 1625:1 1628:1 1669:1 1673:1 1678:2 1683:1 1691:1 1731:1 1760:4 1763:1 1835:1 1853:1 1903:1 1956:2 1965:1 2013:2 2072:1 2133:1 2163:2 2227:1 2312:1 2329:1 2481:1 2537:1 2542:1 2552:2 2602:1 2637:1 2748:1 2840:1 2853:2 2905:1 3055:1 3127:1 3130:1 3395:4 3465:1 3476:1 3495:1 3508:1 3512:1 3577:2 3579:1 3601:3 3671:1 3904:1 3951:1 4126:2 4599:2 5187:1 5201:1 5245:1 5637:1 5657:1 5721:1 5889:1 6007:1 6147:2 6403:5 6636:1 6706:1 6707:1 6708:4 6837:1 6977:1 7427:1 7619:1 7635:1 8815:1 8888:1 9215:1 9918:1 10113:2 10114:2 10149:1 10264:2 10345:2 10544:8 10552:2 11322:2 12925:1 13375:1 13436:3 13572:4 14034:1 14445:1 14559:1 14615:2 14709:1 14891:2 14906:2 16942:1 17065:1 17067:1 18319:1 19142:1 19638:1 19726:1 20355:1 23112:2 24528:1 24757:1 25846:1 33225:2 33724:2 34942:1 35247:1 37427:1 39182:1 39183:2 40644:1 41592:1 41612:1 44648:1 44649:1 44650:1 44651:1 44652:1 44653:1 44654:1 44655:1 44656:1 44657:1 44658:1 44659:1 44660:1 44661:1 44662:2 44663:1 44664:1 44665:2 44666:1 #
-0.00095978161945162025238398317839028 2:1 6:2 8:3 12:6 15:1 16:1 20:1 22:2 32:1 37:4 38:1 39:2 57:3 68:1 71:4 100:2 102:2 112:2 146:2 148:1 150:1 154:2 199:1 231:1 248:9 262:4 273:1 305:1 325:1 412:1 459:2 480:1 502:1 549:1 659:1 684:1 852:2 875:1 1257:1 1274:1 1383:4 1462:1 1495:1 1533:1 1535:1 1594:1 1600:1 1915:1 1946:1 1975:4 1983:1 2076:1 2311:4 2385:1 2404:1 2494:1 2552:1 2579:1 2642:1 2751:1 3301:1 3333:1 3345:1 3347:1 3399:4 3431:1 3671:1 3906:1 4584:1 4742:4 5394:1 5829:1 5945:1 6052:4 6494:1 6540:3 7052:1 7265:1 9863:4 10295:1 14184:4 20903:1 23855:1 42399:1 47579:1 51876:1 61731:4 94152:1 #
-0.00095978161945162025238398317839028 2:1 8:13 12:11 14:2 15:3 20:1 22:40 26:1 28:1 32:2 37:17 39:27 44:1 46:1 47:2 49:2 55:4 57:16 68:10 70:7 71:20 77:6 81:1 83:2 89:1 96:1 100:3 102:4 103:2 105:2 110:2 112:4 113:9 118:1 119:2 123:2 124:7 125:1 128:1 129:1 132:6 143:1 144:2 146:11 148:7 150:3 154:8 157:1 168:1 180:3 190:3 199:1 209:2 217:1 223:1 225:2 227:1 230:6 231:4 241:1 248:10 254:3 262:3 263:4 271:1 272:1 275:3 285:3 291:1 308:1 310:3 330:4 341:1 347:2 355:1 367:1 373:1 397:5 406:1 412:2 418:2 431:2 432:3 437:1 439:2 445:1 450:1 451:1 453:1 459:1 461:2 463:1 477:1 478:3 479:7 488:1 497:2 502:5 506:1 511:3 517:1 520:1 521:4 531:2 549:1 556:1 557:1 570:3 577:3 588:1 601:2 602:3 603:1 609:2 613:1 644:1 646:1 659:1 661:3 666:1 669:1 670:1 673:3 675:6 710:1 765:2 768:1 806:2 836:1 838:1 852:1 867:2 874:4 875:1 876:1 877:2 883:1 886:1 930:1 940:1 1002:7 1010:1 1075:1 1087:1 1136:3 1195:6 1276:1 1298:2 1305:1 1336:1 1342:1 1376:1 1377:2 1395:1 1442:1 1456:1 1462:6 1476:6 1477:4 1487:2 1495:4 1523:2 1525:5 1535:1 1562:1 1580:1 1594:1 1625:1 1650:1 1659:2 1680:1 1690:1 1696:1 1725:1 1731:1 1733:1 1756:3 1763:1 1820:1 1874:1 1894:1 1904:1 1919:1 1936:1 1940:1 1948:1 1957:3 1974:3 1983:1 2027:1 2041:1 2066:1 2075:1 2106:2 2123:1 2165:1 2166:2 2217:2 2226:2 2247:1 2253:4 2285:1 2287:1 2288:1 2291:2 2325:1 2329:1 2351:2 2481:1 2502:1 2524:1 2596:1 2598:1 2681:2 2689:1 2748:1 2883:1 2887:1 2888:1 2905:1 2954:1 3006:1 3043:1 3114:1 3130:1 3139:1 3225:4 3284:4 3347:2 3372:1 3401:1 3410:9 3414:1 3487:1 3539:1 3684:1 3727:1 3743:1 3892:1 3907:7 4107:2 4400:1 4520:1 4573:1 4655:2 4678:3 4790:1 5094:3 5101:1 5114:1 5252:1 5324:1 5386:1 5513:1 5546:6 5760:1 5809:5 5890:2 5939:1 6132:1 6165:1 6187:2 6494:1 6798:2 7064:1 7071:1 7536:4 7610:1 7745:1 8057:2 8067:3 8124:1 8357:1 8728:1 8838:1 9173:1 9270:1 9621:1 9775:1 9807:1 9845:2 9956:6 10555:2 10720:1 11122:3 11156:8 11684:3 11821:1 12414:3 12834:2 14038:2 14167:2 15120:1 17529:1 17783:1 18304:6 19255:1 21710:4 24249:4 24528:1 26056:3 27303:1 27368:1 28228:2 28269:1 30754:1 33987:1 34382:1 36050:1 38714:1 38761:1 56915:1 56916:1 56917:1 56918:5 56919:1 56920:1 56921:1 56922:1 56923:1 56924:1 56925:1 56926:1 56927:1 56928:1 #
-0.00060577664489118877161333287517664 2:1 8:12 12:1 14:1 15:2 20:4 22:39 37:17 38:2 39:36 54:4 55:4 57:7 67:1 68:20 71:21 77:2 83:7 93:5 94:2 99:1 100:3 103:7 110:2 112:6 113:2 119:2 120:1 123:1 124:2 125:2 130:4 132:6 134:2 143:2 144:2 145:2 146:18 148:9 150:1 154:6 157:1 171:1 176:1 185:1 199:1 203:1 204:1 206:3 209:4 212:1 217:1 218:1 223:1 225:1 230:2 231:1 242:1 243:2 248:10 254:1 260:1 263:2 273:3 275:6 292:2 295:1 304:3 308:1 309:2 320:1 323:1 324:1 332:2 342:5 347:5 359:2 383:1 395:1 397:1 423:1 429:4 474:1 479:1 487:1 499:1 501:1 516:2 519:1 520:2 538:1 577:4 629:3 643:8 646:1 659:1 665:2 666:1 675:3 697:2 718:1 736:1 785:1 786:1 821:1 823:1 831:1 836:1 853:1 855:1 860:1 874:1 877:1 887:1 892:2 903:1 972:2 977:1 1002:1 1006:1 1016:2 1025:1 1028:7 1054:1 1069:1 1136:1 1273:1 1276:5 1328:5 1334:1 1360:6 1427:1 1435:1 1450:2 1462:1 1476:1 1498:6 1514:1 1515:1 1518:1 1519:1 1524:1 1534:1 1556:1 1560:1 1566:4 1577:1 1604:2 1612:1 1628:7 1665:1 1680:1 1712:1 1716:1 1737:1 1771:5 1772:2 1893:1 1895:1 1935:1 1980:1 2005:4 2011:1 2032:2 2041:1 2043:1 2060:1 2079:1 2096:1 2098:1 2123:1 2150:1 2152:1 2158:1 2173:1 2212:1 2217:1 2227:1 2230:1 2287:1 2319:1 2320:2 2336:1 2353:1 2365:1 2398:2 2401:2 2435:2 2455:1 2476:1 2519:1 2520:1 2537:2 2544:1 2545:3 2559:1 2572:1 2591:4 2628:1 2692:2 2700:1 2735:1 2746:1 2775:1 2853:3 2864:1 2881:1 2883:1 2887:1 2892:1 2905:2 2955:2 3156:1 3167:1 3173:1 3335:1 3513:1 3529:1 3534:2 3546:1 3590:1 3644:2 3651:1 3660:15 3896:1 3926:1 4071:1 4112:1 4135:1 4555:2 4562:1 4727:1 4850:1 4899:2 5110:2 5271:2 5460:1 5878:2 5925:1 5940:1 6063:1 6095:1 6158:1 6402:1 6444:1 6474:1 6476:1 6636:1 6716:8 6842:1 6971:1 7019:1 7035:1 7178:1 7191:1 7192:1 7483:1 7511:1 7536:1 7601:1 7618:1 7784:1 7915:1 8007:1 8100:1 8851:1 8899:1 8951:1 9267:1 9278:1 9285:1 9392:1 9455:1 9800:1 10230:1 10460:1 10835:1 11042:1 11151:1 12318:1 12824:1 13186:1 13873:2 13907:2 14134:1 15145:1 15182:1 15291:1 15442:1 15573:1 15593:2 16186:1 16782:1 17045:1 17270:1 18275:2 21773:1 22887:1 24055:1 24105:1 25597:1 28281:1 32098:1 35656:1 39520:4 55488:1 58814:1 58815:1 58816:8 58817:4 64814:6 69717:1 #
-0.00054036777209285876202859988381988 2:1 6:4 8:7 12:7 15:1 18:2 19:1 20:1 22:18 25:2 32:1 33:1 37:7 39:32 44:13 45:2 54:5 55:8 56:1 57:18 67:6 68:17 71:19 77:6 83:3 88:2 100:3 102:1 103:6 112:2 113:2 116:2 117:1 118:2 124:3 130:2 132:5 143:1 144:4 146:14 148:10 150:4 154:5 178:1 203:1 207:2 209:5 217:1 231:2 248:7 254:1 273:10 278:2 295:1 325:1 332:1 339:1 342:2 373:1 388:5 389:1 406:1 412:2 418:2 429:1 432:2 448:4 459:2 462:2 502:3 525:1 547:1 561:1 568:1 570:1 589:1 599:2 604:4 609:2 643:1 648:1 659:1 675:1 679:1 680:6 700:1 818:5 845:1 874:3 887:4 893:1 945:1 946:2 1006:2 1025:1 1075:1 1240:1 1293:2 1305:1 1350:1 1353:1 1401:2 1408:5 1422:1 1431:1 1456:2 1462:8 1464:1 1473:1 1474:1 1486:12 1488:5 1492:1 1493:1 1495:7 1498:2 1503:2 1517:1 1519:1 1530:1 1533:2 1534:1 1543:1 1545:1 1546:1 1557:3 1594:3 1595:1 1630:2 1651:1 1680:1 1688:1 1691:2 1707:1 1719:2 1763:1 1768:1 1772:2 1774:3 1805:1 1815:2 1853:1 1864:4 1865:2 1921:1 1922:1 1955:1 1983:1 1995:3 2009:3 2015:1 2066:1 2081:2 2123:1 2140:1 2153:1 2165:1 2172:3 2212:2 2231:9 2252:1 2253:1 2270:1 2296:1 2311:1 2398:1 2444:2 2475:2 2511:4 2512:1 2528:2 2542:2 2552:1 2594:1 2603:1 2658:1 2666:1 2695:1 2782:1 2811:1 2816:2 2836:3 2853:2 2933:1 2938:2 2963:2 2998:5 3007:1 3127:1 3167:3 3189:1 3190:2 3195:1 3208:1 3224:1 3228:4 3241:2 3495:2 3609:1 3671:1 3686:2 3719:2 3869:1 3914:1 3919:1 4025:1 4046:3 4067:2 4143:1 4213:2 4241:2 4402:2 4421:1 4422:2 4470:1 4521:2 4562:1 4693:1 4789:1 4799:1 5001:1 5106:1 5139:1 5144:3 5193:2 5394:1 5446:3 5501:1 5603:5 5607:2 5651:1 5677:1 5711:1 5805:1 5878:1 6540:11 6574:1 6597:1 6736:3 7052:1 7056:2 7444:1 7484:1 7704:2 8210:1 8239:1 8354:2 8443:1 8762:1 9174:3 9203:1 9289:1 9341:1 9389:3 9504:1 9708:1 9726:3 9756:5 9992:1 10154:1 10191:1 10204:1 10216:2 11797:4 11806:1 12495:1 12812:2 12834:2 13409:1 13879:1 14025:1 14797:1 14875:3 15821:9 16128:1 16823:1 16901:1 17851:1 19699:1 21850:5 23804:1 26834:1 27237:1 28873:1 29975:3 29993:2 31362:3 31363:1 31365:2 31366:1 31367:1 33095:1 36429:1 37900:1 38748:1 44502:1 44552:1 54966:2 54967:2 55003:1 71762:1 72517:1 80953:2 80954:1 80955:1 80956:1 80957:1 80958:1 80959:1 80960:1 80961:1 80962:1 80963:1 80964:1 80965:1 80966:1 80967:1 80968:1 80969:1 80970:1 80971:1 80972:2 80973:5 80974:1 80975:1 80976:1 80977:3 80978:3 80979:2 80980:1 80981:1 80982:1 80983:1 80984:1 80985:1 80986:1 80987:1 80988:1 80989:1 80990:1 #
-0.00095978161945162025238398317839028 2:1 6:6 8:8 12:9 14:3 15:3 19:1 20:1 22:41 24:2 31:1 32:3 33:1 35:1 37:7 39:13 54:1 55:1 56:1 57:8 61:4 68:11 71:21 77:1 78:1 93:1 94:2 100:1 103:1 112:4 113:4 118:1 123:7 124:4 128:1 132:5 134:2 143:1 145:2 146:23 148:14 149:1 150:1 154:4 190:1 204:2 208:1 209:2 217:1 218:1 220:2 248:5 249:1 251:2 263:2 268:1 273:1 275:4 285:2 287:1 295:1 300:2 304:2 305:1 324:3 329:2 339:3 342:2 344:1 397:1 406:1 412:3 432:3 439:3 440:1 448:2 477:1 485:1 502:1 506:1 514:1 515:1 519:3 521:3 534:2 552:1 559:1 560:1 567:1 580:5 601:2 603:4 609:1 612:1 648:3 659:1 664:6 675:3 679:1 700:1 705:1 721:1 728:2 729:2 763:1 831:1 836:3 852:1 857:1 874:2 875:1 876:1 882:1 886:1 943:1 977:6 1038:1 1117:1 1250:1 1287:1 1300:1 1314:1 1316:1 1339:2 1376:1 1394:1 1399:3 1462:3 1477:2 1495:1 1498:5 1512:7 1535:3 1545:2 1557:1 1560:1 1563:1 1580:1 1594:3 1595:2 1625:4 1628:1 1633:1 1653:1 1680:2 1694:1 1704:1 1707:1 1714:1 1772:1 1779:1 1802:5 1842:3 1863:1 1894:1 1974:2 1995:1 2041:2 2045:1 2061:1 2071:1 2091:1 2116:1 2126:1 2172:1 2177:4 2202:3 2206:5 2207:5 2236:1 2239:1 2248:5 2287:3 2336:1 2379:1 2398:1 2404:1 2427:2 2446:2 2473:2 2504:1 2510:1 2516:1 2552:1 2560:1 2607:1 2626:4 2648:1 2650:6 2658:1 2666:2 2681:1 2704:2 2741:1 2816:1 2853:2 2861:1 2883:2 2897:2 2935:1 2958:5 3007:2 3014:1 3172:1 3173:3 3195:1 3214:4 3296:1 3376:1 3401:1 3437:1 3445:1 3468:6 3493:1 3495:1 3589:2 3609:1 3614:2 3726:2 3760:1 3849:1 3906:1 3909:1 3919:1 3929:1 3944:1 3946:1 3951:1 3966:1 3989:4 4041:1 4099:1 4118:2 4122:2 4125:1 4126:1 4129:9 4137:1 4213:1 4232:2 4257:1 4470:1 4615:1 4626:2 4678:1 4778:1 4861:1 5028:1 5080:1 5093:1 5094:2 5108:1 5193:1 5196:1 5216:1 5259:1 5412:1 5454:1 5701:1 5721:1 5817:1 5881:1 6039:1 6048:3 6199:1 6204:3 6433:1 6574:1 6600:1 6719:3 6831:1 6997:1 7051:1 7140:2 7442:1 7511:2 7546:2 7562:1 7589:1 7648:1 7744:3 7887:1 7988:5 8107:1 8308:1 8804:1 8810:1 8901:1 9314:3 9316:1 9387:1 9414:1 9644:3 9827:1 9928:1 10032:2 10122:1 10219:1 10277:1 10321:1 10679:1 11617:1 11943:2 12794:1 13651:4 13737:5 13943:1 13967:1 14288:1 14834:1 14891:2 15065:3 15204:1 15310:1 15588:2 16940:1 17376:1 17855:1 17940:1 18663:1 19443:1 21802:1 22605:1 24233:4 24660:1 25169:1 25340:1 25354:1 25854:2 26115:2 26137:1 26791:7 26837:1 27971:1 29691:1 30346:1 32871:1 40851:1 41301:1 46683:5 48874:1 88315:1 88316:1 88317:1 88318:1 88319:1 88320:1 88321:2 88322:1 88323:1 88324:1 88325:1 88326:1 88327:1 88328:1 #
2.6798980248747942704617627796004e-05 2:1 4:4 8:17 9:1 12:8 13:2 14:7 15:30 16:2 20:13 22:150 24:3 29:3 34:4 35:1 37:62 38:18 39:154 40:4 44:5 47:2 48:2 50:1 51:1 52:1 53:4 54:8 55:13 56:2 57:19 59:8 61:19 67:1 68:93 71:61 77:35 78:1 79:6 80:2 81:3 83:12 89:1 90:1 93:4 96:2 100:11 103:3 110:7 111:1 112:30 113:6 116:3 118:10 123:11 124:11 128:4 130:3 132:10 134:5 140:5 142:2 145:5 146:43 147:1 148:72 149:1 150:5 152:2 154:15 156:1 162:1 169:1 174:2 178:2 179:1 180:1 185:1 190:4 198:3 199:10 202:2 203:21 205:1 209:20 212:2 215:2 217:9 218:1 220:3 223:3 224:1 227:1 230:1 231:1 239:5 240:1 241:2 242:7 243:1 244:3 248:57 253:1 254:24 260:2 262:7 263:35 264:2 267:3 270:2 271:1 272:8 273:16 276:1 278:1 284:1 285:10 286:2 287:1 289:4 291:1 296:1 300:3 304:5 305:7 308:6 310:1 311:12 312:1 321:3 322:1 325:2 327:3 328:2 329:3 336:12 337:4 339:8 341:3 342:20 345:1 347:5 348:5 350:1 355:6 360:1 361:3 364:1 368:6 374:1 377:1 381:3 388:1 389:5 394:8 395:1 397:6 412:10 416:52 419:2 423:1 430:1 431:5 432:2 441:2 445:3 448:15 450:1 451:2 452:2 453:6 458:1 459:5 461:6 470:2 472:1 474:1 475:2 478:5 479:3 486:1 487:3 488:2 489:1 491:1 492:3 501:3 502:9 505:1 511:6 514:1 515:3 516:3 520:1 525:1 529:1 531:2 538:1 540:1 550:1 554:2 556:2 557:1 559:2 564:3 565:1 567:2 568:2 570:1 573:1 577:4 580:1 583:2 588:2 590:1 594:2 599:2 609:1 612:1 613:1 615:1 623:1 640:3 645:2 646:2 648:1 651:1 654:1 659:3 661:2 664:3 665:2 666:1 669:1 671:3 675:6 679:2 681:1 682:1 697:2 702:1 704:1 706:4 710:2 721:1 722:1 724:1 726:8 728:4 729:2 731:1 733:1 735:1 736:1 738:1 748:2 762:1 763:2 768:1 771:3 772:2 775:1 786:13 788:1 798:1 799:4 805:1 809:3 820:2 833:6 836:2 838:2 840:2 841:1 847:2 853:1 855:3 858:3 860:1 861:7 862:2 864:4 867:4 868:1 869:1 874:1 876:4 877:3 881:1 882:6 883:4 886:1 887:2 894:1 902:3 907:1 918:2 919:2 943:2 949:1 960:1 977:1 980:1 1002:2 1016:1 1028:2 1040:1 1087:2 1135:2 1173:3 1248:2 1250:1 1274:1 1278:1 1282:1 1291:1 1294:1 1298:1 1300:2 1304:1 1314:2 1316:1 1321:1 1323:1 1325:1 1328:1 1340:1 1351:1 1359:1 1365:1 1369:1 1393:1 1400:3 1401:4 1402:8 1403:1 1408:1 1434:2 1456:2 1459:1 1464:1 1465:2 1485:2 1490:1 1498:1 1503:1 1509:1 1518:1 1521:1 1523:1 1524:2 1525:3 1529:1 1532:1 1534:1 1540:3 1556:1 1560:1 1568:1 1588:1 1589:1 1594:2 1595:1 1602:1 1612:1 1619:1 1625:2 1627:1 1629:1 1663:1 1664:1 1667:1 1694:1 1696:2 1697:2 1713:1 1725:1 1729:1 1739:1 1747:2 1748:1 1774:1 1777:2 1786:1 1813:1 1815:2 1820:1 1835:2 1839:2 1842:31 1855:2 1857:1 1858:1 1860:1 1861:5 1889:1 1893:1 1895:4 1904:1 1919:3 1921:4 1938:1 1948:3 1950:1 1953:5 1958:1 1969:1 1975:1 1982:1 1988:1 1998:2 2004:1 2018:1 2021:1 2026:2 2036:2 2038:1 2043:1 2044:1 2045:3 2047:2 2049:1 2051:1 2061:3 2064:1 2066:1 2070:1 2083:1 2093:1 2096:1 2098:1 2101:1 2104:1 2105:2 2114:2 2118:1 2119:1 2126:1 2128:1 2129:1 2149:1 2152:1 2173:1 2186:2 2193:1 2202:2 2206:3 2207:3 2217:2 2219:2 2225:3 2227:2 2236:4 2252:1 2258:1 2270:1 2281:3 2291:5 2295:1 2300:1 2301:1 2318:1 2319:1 2332:1 2341:2 2344:1 2355:1 2360:4 2377:1 2386:1 2402:1 2406:1 2407:1 2410:1 2412:3 2414:2 2416:2 2426:1 2427:1 2430:3 2436:6 2453:4 2456:1 2458:1 2480:2 2481:1 2502:1 2503:1 2511:1 2514:1 2529:1 2543:1 2547:1 2559:1 2560:1 2574:3 2581:1 2584:3 2626:2 2650:2 2657:1 2673:2 2676:1 2704:1 2708:1 2714:1 2715:1 2720:3 2757:1 2776:1 2780:3 2821:1 2824:1 2852:3 2928:1 2938:1 2939:3 2947:3 2950:1 2952:1 2960:2 2967:1 3004:2 3007:1 3008:1 3010:2 3118:2 3156:1 3159:2 3165:1 3170:1 3179:1 3205:1 3212:1 3231:1 3255:1 3264:1 3273:1 3276:1 3335:2 3344:1 3354:6 3356:1 3373:3 3374:1 3376:1 3377:1 3382:1 3412:1 3418:1 3442:1 3530:1 3567:1 3568:4 3570:1 3572:1 3590:1 3592:2 3594:2 3603:1 3616:1 3628:1 3646:1 3647:2 3651:1 3653:1 3673:3 3679:1 3702:1 3718:1 3727:2 3739:1 3815:1 3831:1 3845:1 3850:2 3857:1 3870:1 3887:1 3891:1 3892:14 3907:3 3913:2 3945:1 3957:1 3961:1 4019:3 4031:1 4036:1 4057:2 4064:1 4074:2 4077:1 4079:1 4081:1 4099:1 4111:2 4119:1 4153:3 4164:1 4189:3 4273:1 4443:1 4457:1 4530:1 4550:1 4555:1 4562:1 4581:1 4667:1 4684:1 4790:1 4799:1 4839:1 4857:1 4892:1 4893:2 4900:1 5051:1 5091:1 5093:1 5101:2 5147:1 5187:1 5193:2 5251:1 5332:1 5345:1 5378:1 5415:1 5427:1 5435:1 5438:1 5585:1 5592:1 5607:1 5613:1 5650:1 5660:1 5693:1 5733:1 5815:2 5881:1 5928:1 5935:1 6024:1 6030:1 6056:1 6091:1 6104:2 6130:1 6145:3 6146:2 6154:1 6165:1 6204:1 6245:3 6277:2 6292:4 6377:1 6471:1 6478:1 6580:1 6684:1 6689:1 6690:1 6734:1 6798:4 6838:1 7002:1 7017:1 7054:1 7061:1 7075:1 7174:1 7179:1 7187:1 7219:1 7536:2 7538:1 7560:1 7657:1 7696:1 7697:1 7698:1 7733:1 7744:2 7763:1 7772:1 7780:1 7886:1 7900:1 7967:1 7972:2 8012:1 8018:1 8026:2 8028:1 8029:1 8040:1 8046:1 8067:1 8081:1 8105:1 8106:1 8109:1 8132:1 8145:1 8188:1 8226:1 8255:1 8286:1 8316:1 8375:2 8389:1 8420:2 8746:3 8748:1 8753:2 8781:3 8807:1 8818:1 8848:1 8942:1 8986:2 8998:1 9001:1 9187:2 9266:1 9275:1 9317:1 9339:1 9371:1 9372:1 9379:1 9385:1 9419:1 9437:1 9446:1 9470:1 9484:2 9530:1 9544:2 9545:3 9608:1 9645:1 9651:2 9659:1 9666:1 9667:1 9671:1 9674:2 9676:1 9678:1 9683:1 9716:1 9734:1 9751:1 9756:1 9765:1 9771:1 9775:1 9806:2 9827:1 9851:1 9856:1 9858:1 9863:1 9968:1 9970:3 9972:2 10183:1 10258:8 10415:1 10472:1 10493:2 10519:1 10544:1 10713:1 10841:1 11138:1 11155:1 11189:1 11369:1 11372:2 11374:1 11430:1 11612:2 11652:1 11657:1 11820:1 11830:2 12620:1 12635:2 12861:1 12925:1 13100:4 13234:1 13251:2 13256:2 13270:1 13284:1 13289:2 13298:1 13389:1 13751:1 14034:1 14071:2 14149:1 14153:2 14288:2 14327:1 14342:1 14361:2 14730:1 14794:1 14834:6 14841:1 15065:2 15158:1 15182:2 15243:1 15301:1 15305:1 15522:1 15540:1 15647:2 15785:1 15801:1 16127:1 16269:1 16723:1 16724:1 16816:2 17514:1 17540:1 17565:1 17583:1 17595:1 17788:1 17883:1 18080:1 18137:1 18144:1 18191:1 18254:1 18257:2 18769:1 18876:3 18967:1 19107:1 19281:1 19402:2 19497:1 19503:1 19700:2 19773:1 19814:1 19815:1 19819:1 19821:2 19913:1 20484:4 20612:1 20623:1 20887:1 21011:1 21042:1 21294:1 21714:1 21869:1 21890:1 22559:1 22566:2 22605:1 22932:1 22980:1 23014:1 23304:1 23681:1 24070:1 24283:1 24389:1 24397:1 24554:1 24768:2 25128:1 25169:1 25259:1 25354:2 25382:2 26010:1 26398:3 26424:1 26799:2 26924:1 27343:2 27490:2 27558:1 27681:1 27805:1 28085:1 28102:1 28160:1 28191:1 28200:1 28215:1 28228:2 29412:1 30216:1 30754:1 31841:1 31905:1 31907:1 32059:1 32497:1 33127:8 33376:1 34332:1 34691:1 35639:1 36082:1 36575:1 37839:1 38262:6 39455:1 39456:1 39463:1 39989:1 40986:1 42965:1 44594:1 45041:1 45111:2 45290:1 45996:1 45997:1 45998:1 45999:1 46000:1 46001:1 46002:1 46003:2 46004:1 46005:1 46006:2 46007:2 46008:1 46009:1 46010:1 46011:1 46012:1 46013:1 46014:1 46015:1 46016:1 46017:1 46018:1 46019:1 46020:2 46021:1 46022:1 46023:1 46024:1 46025:1 46026:1 46027:1 46028:1 46029:1 46030:1 46031:2 46032:1 46033:1 46034:1 46035:1 46036:1 46037:1 46038:1 46039:4 46040:1 46041:3 46042:2 46043:2 46044:1 46045:1 46046:1 46047:1 46048:1 46049:1 46050:1 46051:1 46052:1 46053:1 46054:1 46055:1 46056:1 46057:1 46058:1 46059:1 46060:1 46061:3 46062:1 46063:1 46064:1 46065:1 46066:1 46067:1 46068:1 46069:1 #
-0.00095978161945162025238398317839028 2:1 12:1 37:1 57:2 61:1 124:1 263:2 271:1 272:1 304:1 417:1 472:1 525:1 669:2 721:1 826:1 1351:1 1495:1 1681:1 1864:1 4126:1 4180:1 5193:1 66860:1 82907:1 82908:1 #
-0.00095978161945162025238398317839028 2:1 39:1 55:1 112:1 134:1 305:1 627:1 1894:1 1899:1 2556:1 9806:1 38271:1 81672:5 #
-0.00095978161945162025238398317839028 2:1 12:8 13:1 14:1 15:4 22:6 38:3 39:2 55:1 56:2 57:6 68:2 71:3 100:3 123:1 124:1 132:1 146:5 148:5 154:1 203:1 209:2 239:1 248:1 254:1 263:2 267:1 273:1 275:2 327:1 344:1 412:2 417:1 502:4 852:1 875:1 1273:1 1278:1 1287:1 1293:1 1376:1 1408:2 1495:5 1514:6 1521:1 1594:1 1663:1 1683:2 1728:1 1767:1 1956:1 2066:1 2247:1 2409:1 2481:1 2521:1 2537:2 2591:2 2748:1 2886:1 3348:1 3560:1 4126:2 4544:1 4610:1 5607:1 6904:1 7185:1 7610:1 8061:1 9526:1 15891:1 17855:1 21204:1 22515:1 25991:2 26407:1 49936:1 55548:3 57386:1 57652:1 64816:1 66079:1 66080:1 66081:1 66082:1 66083:1 66084:1 66085:1 #
-0.00095978161945162025238398317839028 2:1 8:1 22:11 37:2 40:5 48:1 61:2 68:4 71:5 113:1 118:2 123:1 125:1 146:4 154:1 174:2 175:1 176:1 180:2 209:1 217:1 223:1 225:2 272:1 280:3 294:1 325:1 332:1 336:1 348:1 389:1 406:1 475:1 479:2 491:1 499:1 506:1 521:1 565:2 595:1 596:1 601:1 654:1 666:6 721:1 976:3 984:1 1028:1 1038:1 1087:1 1257:1 1298:1 1324:1 1462:1 1498:1 1512:1 1542:2 1563:1 1579:2 1612:2 1625:1 1704:1 1756:1 1802:1 1974:1 1983:1 2009:1 2026:3 2036:1 2047:2 2060:1 2172:1 2280:1 2374:1 2425:2 2520:2 2745:1 2768:1 2853:1 2881:1 2883:1 2935:1 3113:1 3128:1 3166:4 3173:2 3202:1 3214:2 3345:3 3348:1 3365:1 3477:1 3538:1 3570:1 3676:2 3684:2 3800:1 3856:1 3946:1 3951:1 3993:1 4107:1 4118:1 4604:1 4834:1 5130:2 5446:1 6173:2 6360:1 6402:1 6946:3 7541:1 7791:1 7889:1 8794:1 8990:1 9558:1 10296:1 14041:1 17313:1 18627:1 21368:1 21588:1 22555:1 23584:1 24566:1 24785:1 27825:1 28172:2 41156:1 45088:2 84954:2 84955:1 #
-0.00095978161945162025238398317839028 2:1 22:2 1733:1 2182:2 3235:1 3465:1 4325:1 4340:1 4350:1 6157:1 6511:1 27181:1 54209:1 56145:1 57178:1 57179:1 57192:2 72916:1 89790:1 92417:1 92418:1 92419:1 92420:1 92421:1 92422:1 92423:1 92424:1 92425:1 92426:1 #
-0.00095978161945162025238398317839028 2:1 12:1 22:16 50:1 118:1 145:1 150:2 154:1 164:1 178:1 188:1 204:1 248:1 263:1 321:1 322:1 345:1 381:1 395:1 430:1 445:2 448:1 502:1 573:1 613:1 624:1 659:1 748:1 771:1 820:1 882:1 893:1 1594:1 1604:1 1613:1 1894:1 1926:1 1959:1 2345:1 2357:1 2439:1 2490:1 2630:1 2653:1 2780:1 2828:1 2986:1 3587:1 3771:1 3857:1 3945:1 4447:1 4589:1 5124:1 5130:1 5335:1 5815:1 5965:1 6540:1 8848:1 9502:1 10296:1 10535:1 10962:1 11500:1 13234:1 13857:1 13918:1 15476:1 16238:1 18123:1 23503:1 55829:1 #
0.00095978161945162025238398317839028 2:1 4:1 8:3 12:4 13:1 15:1 19:3 20:1 22:12 37:2 39:4 57:4 68:5 71:7 72:7 100:3 102:1 113:2 118:1 123:3 124:7 132:1 146:9 148:5 154:1 217:1 248:2 260:1 263:2 267:1 272:1 273:2 275:3 304:2 305:1 360:1 406:1 448:3 495:1 521:2 527:1 544:3 547:1 565:1 601:2 602:3 659:1 671:1 675:1 728:1 729:1 836:3 852:4 883:1 940:1 1009:1 1038:1 1195:1 1257:1 1287:1 1393:1 1394:1 1399:2 1408:1 1433:1 1462:1 1464:1 1485:1 1495:11 1498:3 1502:1 1508:1 1509:1 1521:1 1534:1 1539:1 1542:2 1579:1 1594:1 1605:2 1625:1 1655:1 1669:1 1717:2 1733:2 1777:1 1835:2 1889:1 1903:1 1915:2 1949:1 1974:8 2119:1 2231:1 2385:3 2502:6 2552:1 2576:1 2658:1 2853:4 3195:1 3223:1 3345:3 3348:1 3514:1 3526:1 3625:1 3686:4 3718:2 3743:1 3894:1 3928:2 3930:1 4107:1 4126:2 4153:1 4483:1 4524:1 4534:2 4626:2 4669:1 5130:1 5193:1 5211:1 5217:1 5625:1 5716:1 6160:2 6197:1 6403:1 6444:1 6716:1 6905:1 6963:2 6964:2 6965:2 6966:2 6967:2 6968:2 6969:1 6970:1 6971:1 6972:1 6973:1 6974:2 6975:1 6976:1 6977:1 6978:1 6979:1 6980:1 6981:2 6982:1 #
-0.00095978161945162025238398317839028 2:1 12:1 15:1 37:1 39:1 55:1 71:2 83:1 89:1 112:1 143:1 148:2 254:1 273:1 280:2 394:1 459:1 502:1 840:1 1293:1 1442:1 1533:1 1594:1 1728:1 1763:1 1835:1 2345:1 2515:1 3208:1 3301:1 3345:2 5394:1 5446:1 5829:1 5938:1 7774:1 8838:1 11238:1 14523:1 17932:1 18061:1 19300:1 22461:1 23692:1 27719:1 34698:1 35924:1 43970:1 44755:1 48012:1 48490:1 49190:1 50180:1 54897:1 54913:1 56271:1 56318:1 56359:1 59005:1 63133:1 66592:1 66619:1 72001:1 74784:1 79653:1 79931:1 81976:1 81987:1 86705:1 90259:1 91603:1 98926:1 98927:1 98928:1 98929:1 98930:1 98931:1 #
